tree
version=v4
num_class=3
num_tree_per_iteration=3
label_index=0
max_feature_idx=45
objective=multiclass num_class:3
feature_names=ma5 ma5_ratio ma10 ma10_ratio ma20 ma20_ratio ma60 ma60_ratio ma5_above_ma20 ma10_above_ma60 ma5_slope ma20_slope rsi7 rsi14 rsi21 bb10_width bb10_position bb20_width bb20_position macd macd_signal macd_hist macd_above_signal volume_ma5 volume_ma20 volume_ratio5 volume_ratio20 volume_change turnover turnover_ma5 turnover_ratio return_1d return_3d return_5d return_10d hl_range close_in_hl gap_ratio streak_up streak_down volatility_20 body_ratio upper_shadow lower_shadow is_bullish is_doji
feature_infos=[125300:233900] [0.84010989010989012:1.2089896658974617] [127790:214570] [0.82359278211688658:1.2227916180425187] [141730:207205] [0.81297354778678721:1.2020549653349295] [0:194776.66666666666] [0:1.004401212474098] none none [-0.13342210386151798:0.17337212802247426] [-0.067200279273887942:0.049831445010518838] [9.8113207547169736:82.926829268292693] [23.600746268656721:67.226890756302524] [24.214202561117588:65.300546448087431] [0.058858758362263341:0.52036641366497605] [-0.18200624152727138:1.134060019677726] [0.17307496867381336:0.46111639850340425] [-0.38491667725225653:1.2664714336445739] [-11299.521196363115:10362.419491065288] [-10172.824875225131:5564.2938258039976] [-4249.1997719464962:5573.4679987169266] none [296229.40000000002:3141359.6000000001] [400486.95000000001:1696228.6499999999] [0.34192048792748281:2.6411608275120706] [0.25366322329066016:5.1037965751884178] [-0.77710534392514585:2.3612896330270967] [31323330000:1243149264300] [47550358040:705427688560] [0.32327165166461158:2.4708359452895925] [-0.19470468431771892:0.21717171717171713] [-0.21945570353213661:0.36081309994353483] [-0.26114649681528668:0.36692650334075716] [-0.28257093225246088:0.27861347285807714] [0.019210245464247599:0.20143884892086331] [0:0.96938775510199138] [-0.16097278517660682:0.097449313276651406] [0:4] [0:4] [0.039524813778373177:0.08203544438637915] [0:0.97986577181201473] [0:0.87719298245598643] [0:0.7638888888887827] [0:1] none
tree_sizes=343 342 346 348 348 348 348 347 349 348 350 349 348 351 349 348 350 349 349 349 349 349 350 349 347 348 348 350 349 348 351 349 348 349 350 348 350 350 350 349 349 349 347 350 350 347 348 349 348 349 347 348 350 349 345 350 348 348 350 349 348 349 349 350 349 348 348 350 348 350 350 348 348 350 348 347 350 347 350 349 349 348 454 348 348 350 349 350 349 348 350 455 349 350 350 348 350 455 350 350 458 351 350 456 349 351 349 350 348 350 350 348 351 350 352 349 350 352 350 347 347 350 350 350 350 350 350 348 350 351 350 347 350 350 351 350 349 347 350 349 351 351 350 349 350 350 349 351 351 351 352 349 350 348 351 349 351 350 351 352 351 349 350 351 349 351 457 349 351 350 349 351 350 349 351 350 351 350 351 352 352 350 351 351 349 350 352 351 348 351 349 348 352 351 350 352 350 347 352 349 349 351 351 351 351 458 349 351 350 351 350 350 349 350 349 351 351 350 348 353 349 351 348 350 350 351 352 352 351 352 351 349 352 350 352 351 351 350 351 349 350 350 351 351 453 348 352 351 351 353 350 352 352 457 350 352 351 350 350 352 351 354 458 352 353 351 350 353 352 352 351 455 352 355 352 351 349 456 351 353 351 350 352 454 354 351 456 352 356 352 349 354 350 352 350 352 352 353 350 350 351 460 351 354 352 352 351 350 352 350 459 351 354 458 353 353 352 352 351 350 351 351 458 350 353 351 353 351 458 353 356 350 353 351 352 351 351 457 352 351 351 352 353 352 352 354 457 350 355 351 350 348 455 353 353 351 350 351 458 350 351 351 352 354 351 351 353 352 352 349 456 352 352 351 352 356 352 353 356 351 352 348 350 351 352 351 352 351 458 352 355 351 351 353 352 352 349 351 352 352 351 353 348 459 348 354 352 352 355 351 349 352 349 350 354 352 350 352 352 351 352 457 350 351 351 350 352 351 348 354 352 350 356 352 349 352 352 348 352 351 352 352 351 350 353 352 350 352 351 349 353 351 350 355 352 352 350 352 349 353 352 350 354 459 352 353 352 350 355 351 350 353 352 350 354 352 351 352 350 348 350 352 351 352 352 349 353 459 351 353 349 351 352 352 351 353 350 351 355 457 350 352 352 350 351 459 350 354 352 351 350 456 351 351 458 351 353 352 351 352 352 351 353 351 351 352 352 351 354 351 352 354 454 352 352 353 350 354 349 351 352 459 351 352 351 350 353 352 353 352 351 354 354 351 354 353 352 349 355 457 352 352 348 349 352 352 349 354 350 352 352 351 351 351 353 352 351 351 351 351 352 349 353 351 354 354 351 351 356 352 352 349 459 354 352 352 350 352 353 352 355 352 350 352 460 351 354 353 353 352 352 353 354 351 353 353 350 356 351 354 352 354 351 351 350 349 354 353 353 352 354 457 354 352 457 353 352 352 352 352 352 353 354 354 352 351 350 352 352 352 356 356 349 353 352 458 354 353 351 353 352 353 352 353 353 355 352 351 351 353 353 350 351 352 353 352 350 351 355 354 353 351 352 352 352 353 351 352 351 353 354 458 355 351 351 352 353 353 351 352 350 352 355 456 351 353 455 350 352 352 352 350 458 351 351 350 353 352 353 351 352 457 353 354 351 354 352 457 352 353 353 352 354 351 353 351 456 353 353 462 353 352 353 352 351 353 353 354 350 353 352 354 353 353 351 352 351 352 353 354 355 356 355 457 350 352 463 352 353 462 354 354 458 353 353 456 353 354 459 354 352 459 354 353 350 354 353 458 353 352 460 354 354 458 350 351 460 354 352 352 352 353 353 355 354 352 352 352 353 352 352 352 353 354 350 351 354 456 352 354 353 353 354 352 355 352 352 352 352 350 353 354 351 355 353 457 356 350 352 352 353 459 350 354 458 353 351 352 354 351 352 351 354 353 351 354 353 354 354 352 351 353 458 351 352 459 354 351 459 353 354 355 351 354 354 353 354 351 351 354 355 351 354 353 353 354 353 351 353 355 354 355 351 355 352 353 354 353 353 351 353 352 354 352 352 352 353 348 355 351 352 353 355 458 356 351 457 352 351 461 354 352 460 354 354 461 351 352 456 350 354 457 353 354 354 354 353 355 350 456 355 354 353 355 353 351 458 352 353 352 351 354 460 353 352 459 353 352 351 354 352 355 354 354 459 354 350 460 452 354 459 353 353 460 354 354 352 352 352 355 351 354 355 352 350 457 352 354 352 457 354 352 354 349 353 350 353 352 352 353 353 353 355 356 353 354 458 351 355 354 352 352 353 353 353 357 352 353 357 356 355 354 356 352 354 355 355 459 352 352 354 355 354 354 353 354 460 352 353 460 352 353 354 355 353 356 353 355 458 356 355 357 353 353 351 352 355 356 352 354 456 355 456 354 352 352 354 354 355 458 357 355 462 352 353 351 352 355 459 353 355 461 352 460 460 353 462 355 352 355 461 350 355 460 358 354 355 353 354 462 353 458 462 354 355 354 353 354 355 352 355 355 356 355 461 353 355 354 353 355 460 353 354 462 352 352 354 351 355 355 352 355 355 353 355 459 353 355 461 352 352 462 358 353 459 352 352 354 353 351 463 352 352 355 352 350 357 353 357 355 353 457 463 353 351 354 352 354 357 354 351 354 354 355 463 350 352 460 353 357 355 357 350 460 353 355 352 356 352 459 355 353 462 355 351 463 354 350 355 354 353 356 353 353 355 353 353 358 354 353 463 352 352 461 353 355 357 357 352 357 352 353 460 354 355 464 353 353 465 355 355 466 353 353 463 354 352 462 353 459 459 351 353 462 355 357 460 351 352 358 351 357 462 354 456 466 352 354 460 353 353 357 353 459 356 352 356 465 354 355 356 354 353 356 355 356 468 353 353 357 355 355 357 350 458 357 353 352 357 355 355 356 353 352 464 353 356 460 353 461 357 354 352 462 353 354 464 352 355 357 352 353 463 355 357 460 353 355 356 353 353 463 354 356 462 456 357 469 353 352 357 459 357 357 463 354 358 353 353 357 456 351 465 463 357 357 352 353 357 460 353 463 357 357 469 356 353 355 353 356 357 352 352 357 459 357 470 352 353 356 354 353 468 354 352 355 356 356 357 352 353 357 457 357 470 355 354 355 353 351 356 357 357 468 352 353 356 356 356 357 352 352 357 354 353 470 353 354 463 357 353 356 353 353 357 352 357 467 353 356 357 353 351 356 355 353 354 354 353 357 353 352 357 357 354 471 354 351 356 356 357 466 354 352 357 355 352 356 353 353 357 354 357 471 354 352 358 357 353 355 354 356 357 354 353 357 353 353 469 354 355 357 355 352 357 352 353 356 353 352 466 355 353 468 451 357 468 357 355 354 356 351 357 355 353 470 353 355 356 353 354 357 351 353 469 354 355 357 356 355 356 355 357 357 354 355 357 353 353 358 352 354 357 461 353 358 460 353 356 354 354 357 353 357 465 351 353 357 352 353 468 353 355 465 354 351 354 354 357 466 355 353 357 355 353 357 352 353 471 352 353 357 353 353 466 353 355 463 352 352 357 353 354 357 354 357 466 353 352 357 353 355 464 353 452 465 462 353 358 354 357 358 355 353 356 354 354 358 356 355 357 354

Tree=0
num_leaves=2
num_cat=0
split_feature=5
split_gain=13.8363
threshold=0.92815446481449426
decision_type=2
left_child=-1
right_child=-2
leaf_value=-1.158165454434736 -1.2194178354672227
leaf_weight=9.4970566034317034 14.562153458595274
leaf_count=30 46
internal_value=-1.19524
internal_weight=0
internal_count=76
is_linear=0
shrinkage=1


Tree=1
num_leaves=2
num_cat=0
split_feature=3
split_gain=4.30576
threshold=0.9514133716200629
decision_type=2
left_child=-1
right_child=-2
leaf_value=-2.9018924295961366 -2.972187850058182
leaf_weight=2.2437673062086105 3.4404432028532028
leaf_count=30 46
internal_value=-2.94444
internal_weight=0
internal_count=76
is_linear=0
shrinkage=1


Tree=2
num_leaves=2
num_cat=0
split_feature=5
split_gain=20.6099
threshold=0.92815446481449426
decision_type=2
left_child=-1
right_child=-2
leaf_value=-0.4823457270571303 -0.41058712947797016
leaf_weight=10.307306349277498 15.804536402225493
leaf_count=30 46
internal_value=-0.438913
internal_weight=0
internal_count=76
is_linear=0
shrinkage=1


Tree=3
num_leaves=2
num_cat=0
split_feature=5
split_gain=12.3455
threshold=0.93607867333430439
decision_type=2
left_child=-1
right_child=-2
leaf_value=0.031571953585884459 -0.025350248841938545
leaf_weight=10.702142715454103 13.343696117401121
leaf_count=33 43
internal_value=0
internal_weight=0
internal_count=76
is_linear=0
shrinkage=0.0394807


Tree=4
num_leaves=2
num_cat=0
split_feature=21
split_gain=4.1305
threshold=-1246.4070178331194
decision_type=2
left_child=-1
right_child=-2
leaf_value=0.040843820038466538 -0.027725259483233764
leaf_weight=2.2980325222015381 3.3876692056655884
leaf_count=30 46
internal_value=0
internal_weight=0
internal_count=76
is_linear=0
shrinkage=0.0394807


Tree=5
num_leaves=2
num_cat=0
split_feature=5
split_gain=18.5639
threshold=0.92815446481449426
decision_type=2
left_child=-1
right_child=-2
leaf_value=-0.040468591093793756 0.027408512430104833
leaf_weight=10.529478788375856 15.562813520431517
leaf_count=30 46
internal_value=0
internal_weight=0
internal_count=76
is_linear=0
shrinkage=0.0394807


Tree=6
num_leaves=2
num_cat=0
split_feature=5
split_gain=11.0817
threshold=0.93607867333430439
decision_type=2
left_child=-1
right_child=-2
leaf_value=0.029297895982557748 -0.024570602146234254
leaf_weight=10.934276074171068 13.064698189496992
leaf_count=33 43
internal_value=0
internal_weight=0
internal_count=76
is_linear=0
shrinkage=0.0394807


Tree=7
num_leaves=2
num_cat=0
split_feature=3
split_gain=3.81487
threshold=0.9514133716200629
decision_type=2
left_child=-1
right_child=-2
leaf_value=0.037804335728476281 -0.027674970880043236
leaf_weight=2.4016316011548042 3.2816713601350784
leaf_count=30 46
internal_value=0
internal_weight=0
internal_count=76
is_linear=0
shrinkage=0.0394807


Tree=8
num_leaves=2
num_cat=0
split_feature=16
split_gain=14.3703
threshold=0.32865897549059353
decision_type=2
left_child=-1
right_child=-2
leaf_value=-0.032745574972338515 0.026284592471565615
leaf_weight=11.578506559133531 14.450555324554442
leaf_count=33 43
internal_value=0
internal_weight=0
internal_count=76
is_linear=0
shrinkage=0.0394807


Tree=9
num_leaves=2
num_cat=0
split_feature=5
split_gain=10.1781
threshold=0.93607867333430439
decision_type=2
left_child=-1
right_child=-2
leaf_value=0.027655198580794949 -0.023965990448621043
leaf_weight=11.100491136312487 12.839941918849943
leaf_count=33 43
internal_value=0
internal_weight=0
internal_count=76
is_linear=0
shrinkage=0.0394807


Tree=10
num_leaves=2
num_cat=0
split_feature=21
split_gain=3.70846
threshold=-1246.4070178331194
decision_type=2
left_child=-1
right_child=-2
leaf_value=0.036785428599441367 -0.027662303741609814
leaf_weight=2.4381181597709656 3.2419396415352821
leaf_count=30 46
internal_value=0
internal_weight=0
internal_count=76
is_linear=0
shrinkage=0.0394807


Tree=11
num_leaves=2
num_cat=0
split_feature=5
split_gain=15.6838
threshold=0.92815446481449426
decision_type=2
left_child=-1
right_child=-2
leaf_value=-0.036281629096954482 0.025971945620574425
leaf_weight=10.814953058958055 15.136001914739607
leaf_count=30 46
internal_value=0
internal_weight=0
internal_count=76
is_linear=0
shrinkage=0.0394807


Tree=12
num_leaves=2
num_cat=0
split_feature=5
split_gain=9.17034
threshold=0.93607867333430439
decision_type=2
left_child=-1
right_child=-2
leaf_value=0.025799431917703702 -0.023237752094916887
leaf_weight=11.28168034553528 12.564194172620772
leaf_count=33 43
internal_value=0
internal_weight=0
internal_count=76
is_linear=0
shrinkage=0.0394807


Tree=13
num_leaves=2
num_cat=0
split_feature=34
split_gain=3.50046
threshold=-0.081513092758867908
decision_type=2
left_child=-1
right_child=-2
leaf_value=0.034809838630600103 -0.027626937175505219
leaf_weight=2.5124617069959641 3.159313753247261
leaf_count=30 46
internal_value=0
internal_weight=0
internal_count=76
is_linear=0
shrinkage=0.0394807


Tree=14
num_leaves=2
num_cat=0
split_feature=5
split_gain=14.2825
threshold=0.92815446481449426
decision_type=2
left_child=-1
right_child=-2
leaf_value=-0.034223329052485887 0.025195653261575589
leaf_weight=10.938618928194048 14.886783689260481
leaf_count=30 46
internal_value=0
internal_weight=0
internal_count=76
is_linear=0
shrinkage=0.0394807


Tree=15
num_leaves=2
num_cat=0
split_feature=12
split_gain=7.51052
threshold=39.499579281974576
decision_type=2
left_child=-1
right_child=-2
leaf_value=0.020052337599532809 -0.024592100665909049
leaf_weight=13.050670713186266 10.68006110191345
leaf_count=39 37
internal_value=0
internal_weight=0
internal_count=76
is_linear=0
shrinkage=0.0394807


Tree=16
num_leaves=2
num_cat=0
split_feature=21
split_gain=3.31268
threshold=-1246.4070178331194
decision_type=2
left_child=-1
right_child=-2
leaf_value=0.033038106038360243 -0.027593123849238701
leaf_weight=2.5828486755490303 3.0784537978470325
leaf_count=30 46
internal_value=0
internal_weight=0
internal_count=76
is_linear=0
shrinkage=0.0394807


Tree=17
num_leaves=2
num_cat=0
split_feature=5
split_gain=13.0096
threshold=0.92815446481449426
decision_type=2
left_child=-1
right_child=-2
leaf_value=-0.032336183070432747 0.024436225656417197
leaf_weight=11.038376510143282 14.629967927932737
leaf_count=30 46
internal_value=0
internal_weight=0
internal_count=76
is_linear=0
shrinkage=0.0394807


Tree=18
num_leaves=2
num_cat=0
split_feature=5
split_gain=7.62073
threshold=0.93607867333430439
decision_type=2
left_child=-1
right_child=-2
leaf_value=0.022891414255060753 -0.021975937298731762
leaf_weight=11.544392645359041 12.069697767496107
leaf_count=33 43
internal_value=0
internal_weight=0
internal_count=76
is_linear=0
shrinkage=0.0394807


Tree=19
num_leaves=2
num_cat=0
split_feature=5
split_gain=4.42833
threshold=0.91388919860789808
decision_type=2
left_child=-1
right_child=-2
leaf_value=0.044183438552657196 -0.027607661401751998
leaf_weight=2.1811146140098572 3.4689511358737946
leaf_count=24 52
internal_value=0
internal_weight=0
internal_count=76
is_linear=0
shrinkage=0.0394807


Tree=20
num_leaves=2
num_cat=0
split_feature=16
split_gain=11.0288
threshold=0.32865897549059353
decision_type=2
left_child=-1
right_child=-2
leaf_value=-0.027890209039804971 0.02416621912354067
leaf_weight=11.834165513515474 13.673206537961958
leaf_count=33 43
internal_value=0
internal_weight=0
internal_count=76
is_linear=0
shrinkage=0.0394807


Tree=21
num_leaves=2
num_cat=0
split_feature=5
split_gain=7.04169
threshold=0.93607867333430439
decision_type=2
left_child=-1
right_child=-2
leaf_value=0.021779974313112772 -0.021448429048273671
leaf_weight=11.641129851341249 11.854914397001265
leaf_count=33 43
internal_value=0
internal_weight=0
internal_count=76
is_linear=0
shrinkage=0.0394807


Tree=22
num_leaves=2
num_cat=0
split_feature=21
split_gain=5.35891
threshold=-1777.2227855484432
decision_type=2
left_child=-1
right_child=-2
leaf_value=0.053429799331867991 -0.027653502874251262
leaf_weight=1.9328487291932104 3.7065083682537079
leaf_count=21 55
internal_value=0
internal_weight=0
internal_count=76
is_linear=0
shrinkage=0.0394807


Tree=23
num_leaves=2
num_cat=0
split_feature=5
split_gain=11.1832
threshold=0.92815446481449426
decision_type=2
left_child=-1
right_child=-2
leaf_value=-0.029593855713680207 0.023245005073818489
leaf_weight=11.148164540529253 14.190748751163481
leaf_count=30 46
internal_value=0
internal_weight=0
internal_count=76
is_linear=0
shrinkage=0.0394807


Tree=24
num_leaves=2
num_cat=0
split_feature=5
split_gain=6.37911
threshold=0.93607867333430439
decision_type=2
left_child=-1
right_child=-2
leaf_value=0.02047937952731245 -0.020800220594396061
leaf_weight=11.745511263608934 11.59590247273445
leaf_count=33 43
internal_value=0
internal_weight=0
internal_count=76
is_linear=0
shrinkage=0.0394807


Tree=25
num_leaves=2
num_cat=0
split_feature=21
split_gain=4.9391
threshold=-1777.2227855484432
decision_type=2
left_child=-1
right_child=-2
leaf_value=0.049414808421206526 -0.027612882689999778
leaf_weight=2.029857225716114 3.5955183766782284
leaf_count=21 55
internal_value=0
internal_weight=0
internal_count=76
is_linear=0
shrinkage=0.0394807


Tree=26
num_leaves=2
num_cat=0
split_feature=16
split_gain=9.63965
threshold=0.32865897549059353
decision_type=2
left_child=-1
right_child=-2
leaf_value=-0.02583579195597609 0.023141456883608708
leaf_weight=11.88103434443474 13.248310625553129
leaf_count=33 43
internal_value=0
internal_weight=0
internal_count=76
is_linear=0
shrinkage=0.0394807


Tree=27
num_leaves=2
num_cat=0
split_feature=40
split_gain=5.98182
threshold=0.060500434601522234
decision_type=2
left_child=-1
right_child=-2
leaf_value=0.019939597009826601 -0.020151755648306825
leaf_weight=11.651747465133669 11.55213078856468
leaf_count=36 40
internal_value=0
internal_weight=0
internal_count=76
is_linear=0
shrinkage=0.0394807


Tree=28
num_leaves=2
num_cat=0
split_feature=5
split_gain=3.79308
threshold=0.91388919860789808
decision_type=2
left_child=-1
right_child=-2
leaf_value=0.038165233440847567 -0.027539114805548541
leaf_weight=2.3710281997919083 3.2415684275329113
leaf_count=24 52
internal_value=0
internal_weight=0
internal_count=76
is_linear=0
shrinkage=0.0394807


Tree=29
num_leaves=2
num_cat=0
split_feature=5
split_gain=9.60382
threshold=0.92815446481449426
decision_type=2
left_child=-1
right_child=-2
leaf_value=-0.027152494084889799 0.022098173336995673
leaf_weight=11.20648029446602 13.735349684953688
leaf_count=30 46
internal_value=0
internal_weight=0
internal_count=76
is_linear=0
shrinkage=0.0394807


Tree=30
num_leaves=2
num_cat=0
split_feature=40
split_gain=5.59839
threshold=0.060500434601522234
decision_type=2
left_child=-1
right_child=-2
leaf_value=0.019162618073410579 -0.019725889843734273
leaf_weight=11.705697625875475 11.379217863082884
leaf_count=36 40
internal_value=0
internal_weight=0
internal_count=76
is_linear=0
shrinkage=0.0394807


Tree=31
num_leaves=2
num_cat=0
split_feature=21
split_gain=4.41077
threshold=-1777.2227855484432
decision_type=2
left_child=-1
right_child=-2
leaf_value=0.04435370096106412 -0.027575367019565887
leaf_weight=2.1657617166638374 3.4378169886767864
leaf_count=21 55
internal_value=0
internal_weight=0
internal_count=76
is_linear=0
shrinkage=0.0394807


Tree=32
num_leaves=2
num_cat=0
split_feature=5
split_gain=8.95476
threshold=0.92815446481449426
decision_type=2
left_child=-1
right_child=-2
leaf_value=-0.026125019843626956 0.02157201934888324
leaf_weight=11.220517158508303 13.537262588739393
leaf_count=30 46
internal_value=0
internal_weight=0
internal_count=76
is_linear=0
shrinkage=0.0394807


Tree=33
num_leaves=2
num_cat=0
split_feature=5
split_gain=7.54608
threshold=0.91994313455468146
decision_type=2
left_child=-1
right_child=-2
leaf_value=0.026012937555136173 -0.019695003828712074
leaf_weight=9.8928884267807025 13.064833611249922
leaf_count=27 49
internal_value=0
internal_weight=0
internal_count=76
is_linear=0
shrinkage=0.0394807


Tree=34
num_leaves=2
num_cat=0
split_feature=18
split_gain=3.91329
threshold=0.21194789500675601
decision_type=2
left_child=-1
right_child=-2
leaf_value=0.039477290209664249 -0.027549195941006511
leaf_weight=2.3184325359761715 3.2758231572806835
leaf_count=22 54
internal_value=0
internal_weight=0
internal_count=76
is_linear=0
shrinkage=0.0394807


Tree=35
num_leaves=2
num_cat=0
split_feature=5
split_gain=8.38081
threshold=0.92815446481449426
decision_type=2
left_child=-1
right_child=-2
leaf_value=-0.02519615913054328 0.021088992408695547
leaf_weight=11.225172698497774 13.349015384912489
leaf_count=30 46
internal_value=0
internal_weight=0
internal_count=76
is_linear=0
shrinkage=0.0394807


Tree=36
num_leaves=2
num_cat=0
split_feature=18
split_gain=5.28087
threshold=0.21853388488935066
decision_type=2
left_child=-1
right_child=-2
leaf_value=0.023356890578677153 -0.015473388633420064
leaf_weight=9.0816999971866625 13.685928151011465
leaf_count=25 51
internal_value=0
internal_weight=0
internal_count=76
is_linear=0
shrinkage=0.0394807


Tree=37
num_leaves=2
num_cat=0
split_feature=21
split_gain=3.96798
threshold=-1777.2227855484432
decision_type=2
left_child=-1
right_child=-2
leaf_value=0.040157568851797852 -0.027542087995724288
leaf_weight=2.2920617014169693 3.2806342728435993
leaf_count=21 55
internal_value=0
internal_weight=0
internal_count=76
is_linear=0
shrinkage=0.0394807


Tree=38
num_leaves=2
num_cat=0
split_feature=16
split_gain=7.75109
threshold=0.32865897549059353
decision_type=2
left_child=-1
right_child=-2
leaf_value=-0.023032546944176061 0.021577825192012189
leaf_weight=11.801449567079546 12.502269119024275
leaf_count=33 43
internal_value=0
internal_weight=0
internal_count=76
is_linear=0
shrinkage=0.0394807


Tree=39
num_leaves=2
num_cat=0
split_feature=5
split_gain=7.35183
threshold=0.91388919860789808
decision_type=2
left_child=-1
right_child=-2
leaf_value=0.028010350886638859 -0.018074982564802815
leaf_weight=8.8856814503669757 13.736241668462752
leaf_count=24 52
internal_value=0
internal_weight=0
internal_count=76
is_linear=0
shrinkage=0.0394807


Tree=40
num_leaves=2
num_cat=0
split_feature=21
split_gain=3.70783
threshold=-1777.2227855484432
decision_type=2
left_child=-1
right_child=-2
leaf_value=0.037687977748603829 -0.027504067083480955
leaf_weight=2.3737020045518875 3.183123990893364
leaf_count=21 55
internal_value=0
internal_weight=0
internal_count=76
is_linear=0
shrinkage=0.0394807


Tree=41
num_leaves=2
num_cat=0
split_feature=5
split_gain=7.20779
threshold=0.92815446481449426
decision_type=2
left_child=-1
right_child=-2
leaf_value=-0.023288247958688571 0.020004341037760665
leaf_weight=11.193595707416536 12.904945760965346
leaf_count=30 46
internal_value=0
internal_weight=0
internal_count=76
is_linear=0
shrinkage=0.0394807


Tree=42
num_leaves=2
num_cat=0
split_feature=5
split_gain=7.97297
threshold=0.9097706592193705
decision_type=2
left_child=-1
right_child=-2
leaf_value=0.032228217005323107 -0.017181285089770196
leaf_weight=7.8124913573265102 14.61014164984226
leaf_count=21 55
internal_value=0
internal_weight=0
internal_count=76
is_linear=0
shrinkage=0.0394807


Tree=43
num_leaves=2
num_cat=0
split_feature=18
split_gain=3.48584
threshold=0.21194789500675601
decision_type=2
left_child=-1
right_child=-2
leaf_value=0.035549445866204059 -0.027529806756436292
leaf_weight=2.4521877132356167 3.0807673670351505
leaf_count=22 54
internal_value=0
internal_weight=0
internal_count=76
is_linear=0
shrinkage=0.0394807


Tree=44
num_leaves=2
num_cat=0
split_feature=16
split_gain=6.77535
threshold=0.32865897549059353
decision_type=2
left_child=-1
right_child=-2
leaf_value=-0.021514474013308027 0.020595344257762539
leaf_weight=11.728324443101885 12.099838048219679
leaf_count=33 43
internal_value=0
internal_weight=0
internal_count=76
is_linear=0
shrinkage=0.0394807


Tree=45
num_leaves=2
num_cat=0
split_feature=5
split_gain=7.44086
threshold=0.9097706592193705
decision_type=2
left_child=-1
right_child=-2
leaf_value=0.03102342630675577 -0.016776854051363765
leaf_weight=7.8349150419235256 14.414960861206053
leaf_count=21 55
internal_value=0
internal_weight=0
internal_count=76
is_linear=0
shrinkage=0.0394807


Tree=46
num_leaves=2
num_cat=0
split_feature=21
split_gain=3.4034
threshold=-1777.2227855484432
decision_type=2
left_child=-1
right_child=-2
leaf_value=0.034899728401757889 -0.02747252982103808
leaf_weight=2.4717952236533165 3.0408855862915516
leaf_count=21 55
internal_value=0
internal_weight=0
internal_count=76
is_linear=0
shrinkage=0.0394807


Tree=47
num_leaves=2
num_cat=0
split_feature=18
split_gain=7.91211
threshold=0.21853388488935066
decision_type=2
left_child=-1
right_child=-2
leaf_value=-0.028849861383305791 0.018068561512198662
leaf_weight=9.1642383038997668 14.41353204846382
leaf_count=25 51
internal_value=0
internal_weight=0
internal_count=76
is_linear=0
shrinkage=0.0394807


Tree=48
num_leaves=2
num_cat=0
split_feature=5
split_gain=6.82833
threshold=0.9097706592193705
decision_type=2
left_child=-1
right_child=-2
leaf_value=0.029602179764758704 -0.016279880511716839
leaf_weight=7.8530733883380917 14.193328633904455
leaf_count=21 55
internal_value=0
internal_weight=0
internal_count=76
is_linear=0
shrinkage=0.0394807


Tree=49
num_leaves=2
num_cat=0
split_feature=21
split_gain=3.21325
threshold=-1777.2227855484432
decision_type=2
left_child=-1
right_child=-2
leaf_value=0.033145631903615712 -0.02743852682339681
leaf_weight=2.5379607826471329 2.9507108293473721
leaf_count=21 55
internal_value=0
internal_weight=0
internal_count=76
is_linear=0
shrinkage=0.0394807


Tree=50
num_leaves=2
num_cat=0
split_feature=5
split_gain=8.71478
threshold=0.91994313455468146
decision_type=2
left_child=-1
right_child=-2
leaf_value=-0.028138430506935624 0.020664247414827086
leaf_weight=9.961055129766466 13.34304068982601
leaf_count=27 49
internal_value=0
internal_weight=0
internal_count=76
is_linear=0
shrinkage=0.0394807


Tree=51
num_leaves=2
num_cat=0
split_feature=6
split_gain=4.43593
threshold=178055.83333333334
decision_type=2
left_child=-1
right_child=-2
leaf_value=0.014209096217511638 -0.022346098486552841
leaf_weight=13.378150433301927 8.4375941604375821
leaf_count=47 29
internal_value=0
internal_weight=0
internal_count=76
is_linear=0
shrinkage=0.0394807


Tree=52
num_leaves=2
num_cat=0
split_feature=21
split_gain=3.03003
threshold=-1777.2227855484432
decision_type=2
left_child=-1
right_child=-2
leaf_value=0.031459841829065339 -0.027404830836943318
leaf_weight=2.6047265008091927 2.8585187494754791
leaf_count=21 55
internal_value=0
internal_weight=0
internal_count=76
is_linear=0
shrinkage=0.0394807


Tree=53
num_leaves=2
num_cat=0
split_feature=5
split_gain=8.04983
threshold=0.91994313455468146
decision_type=2
left_child=-1
right_child=-2
leaf_value=-0.027090983546850252 0.020084012553523229
leaf_weight=9.8994735181331652 13.096894711256025
leaf_count=27 49
internal_value=0
internal_weight=0
internal_count=76
is_linear=0
shrinkage=0.0394807


Tree=54
num_leaves=2
num_cat=0
split_feature=5
split_gain=6.00412
threshold=0.9097706592193705
decision_type=2
left_child=-1
right_child=-2
leaf_value=0.0276310636540394 -0.015579809065830279
leaf_weight=7.8606696724891689 13.83105945587158
leaf_count=21 55
internal_value=0
internal_weight=0
internal_count=76
is_linear=0
shrinkage=0.0394807


Tree=55
num_leaves=2
num_cat=0
split_feature=18
split_gain=3.00081
threshold=0.21194789500675601
decision_type=2
left_child=-1
right_child=-2
leaf_value=0.031082475723459915 -0.027527336926210979
leaf_weight=2.6211926862597466 2.8329904340207577
leaf_count=22 54
internal_value=0
internal_weight=0
internal_count=76
is_linear=0
shrinkage=0.0394807


Tree=56
num_leaves=2
num_cat=0
split_feature=5
split_gain=9.16898
threshold=0.91388919860789808
decision_type=2
left_child=-1
right_child=-2
leaf_value=-0.031993388260914413 0.01950301843842929
leaf_weight=8.7367563247680682 14.065297588706015
leaf_count=24 52
internal_value=0
internal_weight=0
internal_count=76
is_linear=0
shrinkage=0.0394807


Tree=57
num_leaves=2
num_cat=0
split_feature=5
split_gain=5.47678
threshold=0.9097706592193705
decision_type=2
left_child=-1
right_child=-2
leaf_value=0.026346668588121226 -0.015057282413697807
leaf_weight=7.8557879924774197 13.601242810487745
leaf_count=21 55
internal_value=0
internal_weight=0
internal_count=76
is_linear=0
shrinkage=0.0394807


Tree=58
num_leaves=2
num_cat=0
split_feature=21
split_gain=2.78087
threshold=-1777.2227855484432
decision_type=2
left_child=-1
right_child=-2
leaf_value=0.029120074132977215 -0.027387634221605079
leaf_weight=2.7008431032299995 2.7285288609564304
leaf_count=21 55
internal_value=0
internal_weight=0
internal_count=76
is_linear=0
shrinkage=0.0394807


Tree=59
num_leaves=2
num_cat=0
split_feature=5
split_gain=8.44911
threshold=0.91388919860789808
decision_type=2
left_child=-1
right_child=-2
leaf_value=-0.030867707537351782 0.018884530806085147
leaf_weight=8.6513896286487597 13.818262457847593
leaf_count=24 52
internal_value=0
internal_weight=0
internal_count=76
is_linear=0
shrinkage=0.0394807


Tree=60
num_leaves=2
num_cat=0
split_feature=5
split_gain=4.97873
threshold=0.9097706592193705
decision_type=2
left_child=-1
right_child=-2
leaf_value=0.025090307556691803 -0.014533215498370878
leaf_weight=7.8403108716011074 13.374262884259222
leaf_count=21 55
internal_value=0
internal_weight=0
internal_count=76
is_linear=0
shrinkage=0.0394807


Tree=61
num_leaves=2
num_cat=0
split_feature=18
split_gain=2.76099
threshold=0.21194789500675601
decision_type=2
left_child=-1
right_child=-2
leaf_value=0.02893375435965401 -0.027507634239421593
leaf_weight=2.7105568498373032 2.6925667002797127
leaf_count=22 54
internal_value=0
internal_weight=0
internal_count=76
is_linear=0
shrinkage=0.0394807


Tree=62
num_leaves=2
num_cat=0
split_feature=5
split_gain=7.81771
threshold=0.91388919860789808
decision_type=2
left_child=-1
right_child=-2
leaf_value=-0.029851152894718111 0.018316345980721693
leaf_weight=8.5614676773548144 13.587008491158484
leaf_count=24 52
internal_value=0
internal_weight=0
internal_count=76
is_linear=0
shrinkage=0.0394807


Tree=63
num_leaves=2
num_cat=0
split_feature=17
split_gain=4.12285
threshold=0.27560851931780078
decision_type=2
left_child=-1
right_child=-2
leaf_value=-0.017959148174932882 0.017064882896919556
leaf_weight=10.140759497880937 10.837145909667013
leaf_count=39 37
internal_value=0
internal_weight=0
internal_count=76
is_linear=0
shrinkage=0.0394807


Tree=64
num_leaves=2
num_cat=0
split_feature=18
split_gain=2.60748
threshold=0.21194789500675601
decision_type=2
left_child=-1
right_child=-2
leaf_value=0.027532482028837218 -0.027472162618971941
leaf_weight=2.773174524307251 2.6047679632902145
leaf_count=22 54
internal_value=0
internal_weight=0
internal_count=76
is_linear=0
shrinkage=0.0394807


Tree=65
num_leaves=2
num_cat=0
split_feature=6
split_gain=4.87131
threshold=178055.83333333334
decision_type=2
left_child=-1
right_child=-2
leaf_value=-0.015045410884579844 0.023334631468218726
leaf_weight=13.461095303297045 8.3531109988689405
leaf_count=47 29
internal_value=0
internal_weight=0
internal_count=76
is_linear=0
shrinkage=0.0394807


Tree=66
num_leaves=2
num_cat=0
split_feature=5
split_gain=4.53228
threshold=0.9097706592193705
decision_type=2
left_child=-1
right_child=-2
leaf_value=0.023963312348645894 -0.014001042065914137
leaf_weight=7.8160202801227596 13.143928676843641
leaf_count=21 55
internal_value=0
internal_weight=0
internal_count=76
is_linear=0
shrinkage=0.0394807


Tree=67
num_leaves=2
num_cat=0
split_feature=21
split_gain=2.53399
threshold=-1777.2227855484432
decision_type=2
left_child=-1
right_child=-2
leaf_value=0.026885455880921578 -0.027382655337521145
leaf_weight=2.7972305119037628 2.5758175402879715
leaf_count=21 55
internal_value=0
internal_weight=0
internal_count=76
is_linear=0
shrinkage=0.0394807


Tree=68
num_leaves=2
num_cat=0
split_feature=5
split_gain=7.12982
threshold=0.91388919860789808
decision_type=2
left_child=-1
right_child=-2
leaf_value=-0.028739220193262052 0.017643267278815943
leaf_weight=8.4441932737827319 13.30472521483898
leaf_count=24 52
internal_value=0
internal_weight=0
internal_count=76
is_linear=0
shrinkage=0.0394807


Tree=69
num_leaves=2
num_cat=0
split_feature=40
split_gain=3.4656
threshold=0.060500434601522234
decision_type=2
left_child=-1
right_child=-2
leaf_value=0.015351320774911626 -0.017003535968992123
leaf_weight=10.994121983647348 9.7240530848503095
leaf_count=36 40
internal_value=0
internal_weight=0
internal_count=76
is_linear=0
shrinkage=0.0394807


Tree=70
num_leaves=2
num_cat=0
split_feature=18
split_gain=2.42778
threshold=0.21194789500675601
decision_type=2
left_child=-1
right_child=-2
leaf_value=0.025857297512365162 -0.027461105218872427
leaf_weight=2.8494995422661304 2.4974494948983192
leaf_count=22 54
internal_value=0
internal_weight=0
internal_count=76
is_linear=0
shrinkage=0.0394807


Tree=71
num_leaves=2
num_cat=0
split_feature=5
split_gain=6.60642
threshold=0.91388919860789808
decision_type=2
left_child=-1
right_child=-2
leaf_value=-0.027851925654021972 0.017104643439275487
leaf_weight=8.3429634869098681 13.08665809035301
leaf_count=24 52
internal_value=0
internal_weight=0
internal_count=76
is_linear=0
shrinkage=0.0394807


Tree=72
num_leaves=2
num_cat=0
split_feature=5
split_gain=3.87661
threshold=0.9097706592193705
decision_type=2
left_child=-1
right_child=-2
leaf_value=0.022198497353401739 -0.013174024435344463
leaf_weight=7.7612504363060024 12.783065408468245
leaf_count=21 55
internal_value=0
internal_weight=0
internal_count=76
is_linear=0
shrinkage=0.0394807


Tree=73
num_leaves=2
num_cat=0
split_feature=21
split_gain=2.34681
threshold=-1777.2227855484432
decision_type=2
left_child=-1
right_child=-2
leaf_value=0.025163218889079474 -0.027369778520856782
leaf_weight=2.8760240897536278 2.4579632766544819
leaf_count=21 55
internal_value=0
internal_weight=0
internal_count=76
is_linear=0
shrinkage=0.0394807


Tree=74
num_leaves=2
num_cat=0
split_feature=5
split_gain=6.19736
threshold=0.91388919860789808
decision_type=2
left_child=-1
right_child=-2
leaf_value=-0.027140251642294954 0.016658635568943318
leaf_weight=8.255174398422243 12.910341098904608
leaf_count=24 52
internal_value=0
internal_weight=0
internal_count=76
is_linear=0
shrinkage=0.0394807


Tree=75
num_leaves=2
num_cat=0
split_feature=5
split_gain=3.53095
threshold=0.9097706592193705
decision_type=2
left_child=-1
right_child=-2
leaf_value=0.02121580941920027 -0.012697251753544098
leaf_weight=7.7213968038558987 12.584708750247954
leaf_count=21 55
internal_value=0
internal_weight=0
internal_count=76
is_linear=0
shrinkage=0.0394807


Tree=76
num_leaves=2
num_cat=0
split_feature=18
split_gain=2.23966
threshold=0.21194789500675601
decision_type=2
left_child=-1
right_child=-2
leaf_value=0.024120534174113271 -0.027450765746009975
leaf_weight=2.9322982989251614 2.3756576701998711
leaf_count=22 54
internal_value=0
internal_weight=0
internal_count=76
is_linear=0
shrinkage=0.0394807


Tree=77
num_leaves=2
num_cat=0
split_feature=5
split_gain=5.74753
threshold=0.91388919860789808
decision_type=2
left_child=-1
right_child=-2
leaf_value=-0.026337702755278122 0.0161427520472028
leaf_weight=8.1484760344028491 12.703781947493551
leaf_count=24 52
internal_value=0
internal_weight=0
internal_count=76
is_linear=0
shrinkage=0.0394807


Tree=78
num_leaves=2
num_cat=0
split_feature=17
split_gain=3.82194
threshold=0.27560851931780078
decision_type=2
left_child=-1
right_child=-2
leaf_value=-0.017821316605695532 0.016665566585328168
leaf_weight=9.5731758177280444 10.505203306674955
leaf_count=39 37
internal_value=0
internal_weight=0
internal_count=76
is_linear=0
shrinkage=0.0394807


Tree=79
num_leaves=2
num_cat=0
split_feature=21
split_gain=2.19346
threshold=-1777.2227855484432
decision_type=2
left_child=-1
right_child=-2
leaf_value=0.023843844545228855 -0.02735422721582079
leaf_weight=2.9383253902196884 2.3448422644287348
leaf_count=21 55
internal_value=0
internal_weight=0
internal_count=76
is_linear=0
shrinkage=0.0394807


Tree=80
num_leaves=2
num_cat=0
split_feature=5
split_gain=5.31531
threshold=0.91388919860789808
decision_type=2
left_child=-1
right_child=-2
leaf_value=-0.025552620478821064 0.015605319764672826
leaf_weight=8.0366410017013568 12.493999868631361
leaf_count=24 52
internal_value=0
internal_weight=0
internal_count=76
is_linear=0
shrinkage=0.0394807


Tree=81
num_leaves=2
num_cat=0
split_feature=5
split_gain=3.07114
threshold=0.9097706592193705
decision_type=2
left_child=-1
right_child=-2
leaf_value=0.019857578955225091 -0.012005448730173498
leaf_weight=7.6540178954601314 12.278998672962187
leaf_count=21 55
internal_value=0
internal_weight=0
internal_count=76
is_linear=0
shrinkage=0.0394807


Tree=82
num_leaves=3
num_cat=0
split_feature=32 15
split_gain=2.13866 0.34725
threshold=-0.068747609459683709 0.25128941624987872
decision_type=2 2
left_child=-1 -2
right_child=1 -3
leaf_value=0.03582902590973909 -0.003891482094856305 -0.029022246367529616
leaf_weight=1.8128807023167608 1.645605279132724 1.8144031483680008
leaf_count=18 36 22
internal_value=0 -0.0171026
internal_weight=0 3.46001
internal_count=76 58
is_linear=0
shrinkage=0.0394807


Tree=83
num_leaves=2
num_cat=0
split_feature=5
split_gain=5.05191
threshold=0.91388919860789808
decision_type=2
left_child=-1
right_child=-2
leaf_value=-0.025035362069548085 0.015294853997409775
leaf_weight=7.960860729217532 12.353489026427267
leaf_count=24 52
internal_value=0
internal_weight=0
internal_count=76
is_linear=0
shrinkage=0.0394807


Tree=84
num_leaves=2
num_cat=0
split_feature=17
split_gain=3.6212
threshold=0.27560851931780078
decision_type=2
left_child=-1
right_child=-2
leaf_value=-0.017621578768634519 0.01627683094379978
leaf_weight=9.3279289454221743 10.375331118702887
leaf_count=39 37
internal_value=0
internal_weight=0
internal_count=76
is_linear=0
shrinkage=0.0394807


Tree=85
num_leaves=2
num_cat=0
split_feature=18
split_gain=2.01664
threshold=0.21194789500675601
decision_type=2
left_child=-1
right_child=-2
leaf_value=0.022092483680149291 -0.027409823184589215
leaf_weight=3.0350740700960159 2.2211016919463873
leaf_count=22 54
internal_value=0
internal_weight=0
internal_count=76
is_linear=0
shrinkage=0.0394807


Tree=86
num_leaves=2
num_cat=0
split_feature=5
split_gain=4.69532
threshold=0.91388919860789808
decision_type=2
left_child=-1
right_child=-2
leaf_value=-0.024333566283431994 0.014821076861545159
leaf_weight=7.8531552553176907 12.173373103141783
leaf_count=24 52
internal_value=0
internal_weight=0
internal_count=76
is_linear=0
shrinkage=0.0394807


Tree=87
num_leaves=2
num_cat=0
split_feature=17
split_gain=3.43784
threshold=0.27560851931780078
decision_type=2
left_child=-1
right_child=-2
leaf_value=-0.017297583661066214 0.015855455747023097
leaf_weight=9.2098797708749789 10.358373150229452
leaf_count=39 37
internal_value=0
internal_weight=0
internal_count=76
is_linear=0
shrinkage=0.0394807


Tree=88
num_leaves=2
num_cat=0
split_feature=21
split_gain=2.06286
threshold=-1777.2227855484432
decision_type=2
left_child=-1
right_child=-2
leaf_value=0.022614180331276407 -0.027391142548520916
leaf_weight=2.9943745732307434 2.253037266433239
leaf_count=21 55
internal_value=0
internal_weight=0
internal_count=76
is_linear=0
shrinkage=0.0394807


Tree=89
num_leaves=2
num_cat=0
split_feature=7
split_gain=4.73849
threshold=0.81073148938984507
decision_type=2
left_child=-1
right_child=-2
leaf_value=-0.01564841552059448 0.024153308126249565
leaf_weight=12.291765838861467 7.5110184401273719
leaf_count=47 29
internal_value=0
internal_weight=0
internal_count=76
is_linear=0
shrinkage=0.0394807


Tree=90
num_leaves=2
num_cat=0
split_feature=40
split_gain=2.79479
threshold=0.060500434601522234
decision_type=2
left_child=-1
right_child=-2
leaf_value=0.014158781838265041 -0.01578040814128185
leaf_weight=10.464501678943636 9.0738648027181608
leaf_count=36 40
internal_value=0
internal_weight=0
internal_count=76
is_linear=0
shrinkage=0.0394807


Tree=91
num_leaves=3
num_cat=0
split_feature=32 15
split_gain=1.88309 0.36301
threshold=-0.068747609459683709 0.25128941624987872
decision_type=2 2
left_child=-1 -2
right_child=1 -3
leaf_value=0.032486529297306298 -0.0028682138166545015 -0.0290236187329296
leaf_weight=1.9005565159022806 1.5742378588765862 1.7665532510727642
leaf_count=18 36 22
internal_value=0 -0.0167326
internal_weight=0 3.34079
internal_count=76 58
is_linear=0
shrinkage=0.0394807


Tree=92
num_leaves=2
num_cat=0
split_feature=5
split_gain=4.41291
threshold=0.91388919860789808
decision_type=2
left_child=-1
right_child=-2
leaf_value=-0.023764261488892751 0.014454168728284238
leaf_weight=7.7518750727176693 11.996455103158949
leaf_count=24 52
internal_value=0
internal_weight=0
internal_count=76
is_linear=0
shrinkage=0.0394807


Tree=93
num_leaves=2
num_cat=0
split_feature=17
split_gain=3.20282
threshold=0.27560851931780078
decision_type=2
left_child=-1
right_child=-2
leaf_value=-0.016907803014852407 0.015275612045386737
leaf_weight=9.0394637286663073 10.324740037322043
leaf_count=39 37
internal_value=0
internal_weight=0
internal_count=76
is_linear=0
shrinkage=0.0394807


Tree=94
num_leaves=2
num_cat=0
split_feature=21
split_gain=1.97292
threshold=-1777.2227855484432
decision_type=2
left_child=-1
right_child=-2
leaf_value=0.021718048735452872 -0.027392497544707108
leaf_weight=3.0389413684606552 2.1960585098713636
leaf_count=21 55
internal_value=0
internal_weight=0
internal_count=76
is_linear=0
shrinkage=0.0394807


Tree=95
num_leaves=2
num_cat=0
split_feature=5
split_gain=4.15609
threshold=0.91388919860789808
decision_type=2
left_child=-1
right_child=-2
leaf_value=-0.023214201185147412 0.014089963868979124
leaf_weight=7.6615896224975613 11.86222782731056
leaf_count=24 52
internal_value=0
internal_weight=0
internal_count=76
is_linear=0
shrinkage=0.0394807


Tree=96
num_leaves=2
num_cat=0
split_feature=17
split_gain=3.05844
threshold=0.27560851931780078
decision_type=2
left_child=-1
right_child=-2
leaf_value=-0.016654068396426028 0.014920258714401079
leaf_weight=8.9263838678598422 10.298463016748427
leaf_count=39 37
internal_value=0
internal_weight=0
internal_count=76
is_linear=0
shrinkage=0.0394807


Tree=97
num_leaves=3
num_cat=0
split_feature=21 43
split_gain=2.02854 0.393708
threshold=-2294.5687434304014 0.15163572060120953
decision_type=2 2
left_child=-1 -2
right_child=1 -3
leaf_value=0.034883959630173364 -0.001037405833200098 -0.028259314456338808
leaf_weight=1.8089931309223173 1.4402213562279942 1.9761057980358598
leaf_count=12 25 39
internal_value=0 -0.0168163
internal_weight=0 3.41633
internal_count=76 64
is_linear=0
shrinkage=0.0394807


Tree=98
num_leaves=2
num_cat=0
split_feature=16
split_gain=2.87456
threshold=0.32865897549059353
decision_type=2
left_child=-1
right_child=-2
leaf_value=-0.015459388266574052 0.015004627954291555
leaf_weight=9.8653948456048983 9.4543418586254102
leaf_count=33 43
internal_value=0
internal_weight=0
internal_count=76
is_linear=0
shrinkage=0.0394807


Tree=99
num_leaves=2
num_cat=0
split_feature=17
split_gain=2.92234
threshold=0.27560851931780078
decision_type=2
left_child=-1
right_child=-2
leaf_value=-0.016382706624983374 0.014567547034620884
leaf_weight=8.8416187316179293 10.287965551018713
leaf_count=39 37
internal_value=0
internal_weight=0
internal_count=76
is_linear=0
shrinkage=0.0394807


Tree=100
num_leaves=3
num_cat=0
split_feature=21 10
split_gain=1.89074 0.412624
threshold=-2294.5687434304014 -0.04351929568240092
decision_type=2 2
left_child=-1 -2
right_child=1 -3
leaf_value=0.033004929305136536 0.00054081530335929747 -0.027705829084283592
leaf_weight=1.8572814613580702 1.3171135261654852 2.0474171899259095
leaf_count=12 14 50
internal_value=0 -0.0166164
internal_weight=0 3.36453
internal_count=76 64
is_linear=0
shrinkage=0.0394807


Tree=101
num_leaves=2
num_cat=0
split_feature=18
split_gain=2.76897
threshold=0.21853388488935066
decision_type=2
left_child=-1
right_child=-2
leaf_value=-0.018861768072790535 0.011738099555999727
leaf_weight=7.6992226392030743 11.484426468610762
leaf_count=25 51
internal_value=0
internal_weight=0
internal_count=76
is_linear=0
shrinkage=0.0394807


Tree=102
num_leaves=2
num_cat=0
split_feature=17
split_gain=2.80737
threshold=0.27560851931780078
decision_type=2
left_child=-1
right_child=-2
leaf_value=-0.01615920662567745 0.014272031889784339
leaf_weight=8.7532916814088839 10.267766937613485
leaf_count=39 37
internal_value=0
internal_weight=0
internal_count=76
is_linear=0
shrinkage=0.0394807


Tree=103
num_leaves=3
num_cat=0
split_feature=21 10
split_gain=1.7706 0.409462
threshold=-2294.5687434304014 -0.04351929568240092
decision_type=2 2
left_child=-1 -2
right_child=1 -3
leaf_value=0.031370470880651473 0.00059762065693740149 -0.027692008135810568
leaf_weight=1.9006615057587621 1.314995953813195 1.9974372424185278
leaf_count=12 14 50
internal_value=0 -0.0164292
internal_weight=0 3.31243
internal_count=76 64
is_linear=0
shrinkage=0.0394807


Tree=104
num_leaves=2
num_cat=0
split_feature=5
split_gain=3.71345
threshold=0.91388919860789808
decision_type=2
left_child=-1
right_child=-2
leaf_value=-0.022223916486536752 0.013489507000144299
leaf_weight=7.474562585353854 11.550704538822172
leaf_count=24 52
internal_value=0
internal_weight=0
internal_count=76
is_linear=0
shrinkage=0.0394807


Tree=105
num_leaves=2
num_cat=0
split_feature=17
split_gain=2.67998
threshold=0.27560851931780078
decision_type=2
left_child=-1
right_child=-2
leaf_value=-0.015906894854003612 0.013944547168356412
leaf_weight=8.6481111049652117 10.235923707485197
leaf_count=39 37
internal_value=0
internal_weight=0
internal_count=76
is_linear=0
shrinkage=0.0394807


Tree=106
num_leaves=2
num_cat=0
split_feature=4
split_gain=1.81062
threshold=186560.00000000003
decision_type=2
left_child=-1
right_child=-2
leaf_value=-0.017005358214701061 0.031145263126015923
leaf_weight=3.2614185195416212 1.9416045658290384
leaf_count=48 28
internal_value=0
internal_weight=0
internal_count=76
is_linear=0
shrinkage=0.0394807


Tree=107
num_leaves=2
num_cat=0
split_feature=5
split_gain=3.53699
threshold=0.91388919860789808
decision_type=2
left_child=-1
right_child=-2
leaf_value=-0.021810626425850355 0.013223711730441613
leaf_weight=7.3981437683105495 11.432212859392164
leaf_count=24 52
internal_value=0
internal_weight=0
internal_count=76
is_linear=0
shrinkage=0.0394807


Tree=108
num_leaves=2
num_cat=0
split_feature=5
split_gain=1.96565
threshold=0.9097706592193705
decision_type=2
left_child=-1
right_child=-2
leaf_value=0.01615793942713176 -0.010026549016715855
leaf_weight=7.3562573194503811 11.383462116122244
leaf_count=21 55
internal_value=0
internal_weight=0
internal_count=76
is_linear=0
shrinkage=0.0394807


Tree=109
num_leaves=2
num_cat=0
split_feature=28
split_gain=1.74974
threshold=110581875000.00002
decision_type=2
left_child=-1
right_child=-2
leaf_value=-0.016920760898860441 0.030299343351255861
leaf_weight=3.2353458013385534 1.9661538042128084
leaf_count=45 31
internal_value=0
internal_weight=0
internal_count=76
is_linear=0
shrinkage=0.0394807


Tree=110
num_leaves=2
num_cat=0
split_feature=5
split_gain=3.38686
threshold=0.91388919860789808
decision_type=2
left_child=-1
right_child=-2
leaf_value=-0.021430101486625074 0.013010198634551173
leaf_weight=7.3275309205055263 11.335188478231428
leaf_count=24 52
internal_value=0
internal_weight=0
internal_count=76
is_linear=0
shrinkage=0.0394807


Tree=111
num_leaves=2
num_cat=0
split_feature=7
split_gain=3.7232
threshold=0.81073148938984507
decision_type=2
left_child=-1
right_child=-2
leaf_value=0.013851224591595237 -0.022766299919042395
leaf_weight=11.63976374268532 6.8899432718753806
leaf_count=47 29
internal_value=0
internal_weight=0
internal_count=76
is_linear=0
shrinkage=0.0394807


Tree=112
num_leaves=2
num_cat=0
split_feature=18
split_gain=1.66792
threshold=0.21194789500675601
decision_type=2
left_child=-1
right_child=-2
leaf_value=0.018579770753191182 -0.027515700408135339
leaf_weight=3.2081845514476299 1.9773088265210388
leaf_count=22 54
internal_value=0
internal_weight=0
internal_count=76
is_linear=0
shrinkage=0.0394807


Tree=113
num_leaves=2
num_cat=0
split_feature=5
split_gain=3.16001
threshold=0.91388919860789808
decision_type=2
left_child=-1
right_child=-2
leaf_value=-0.020871330922839448 0.012615335094798343
leaf_weight=7.2268066406250027 11.198522686958311
leaf_count=24 52
internal_value=0
internal_weight=0
internal_count=76
is_linear=0
shrinkage=0.0394807


Tree=114
num_leaves=2
num_cat=0
split_feature=40
split_gain=2.28645
threshold=0.060500434601522234
decision_type=2
left_child=-1
right_child=-2
leaf_value=0.013179349068552162 -0.014713273016658361
leaf_weight=9.8901009708642977 8.5328031331300718
leaf_count=36 40
internal_value=0
internal_weight=0
internal_count=76
is_linear=0
shrinkage=0.0394807


Tree=115
num_leaves=2
num_cat=0
split_feature=4
split_gain=1.70556
threshold=186560.00000000003
decision_type=2
left_child=-1
right_child=-2
leaf_value=-0.016812668566998774 0.029844662672485825
leaf_weight=3.2042150627821684 1.9727172814309595
leaf_count=48 28
internal_value=0
internal_weight=0
internal_count=76
is_linear=0
shrinkage=0.0394807


Tree=116
num_leaves=2
num_cat=0
split_feature=5
split_gain=2.99465
threshold=0.91388919860789808
decision_type=2
left_child=-1
right_child=-2
leaf_value=-0.020462845083882589 0.012306487139032088
leaf_weight=7.1485773622989681 11.089764475822447
leaf_count=24 52
internal_value=0
internal_weight=0
internal_count=76
is_linear=0
shrinkage=0.0394807


Tree=117
num_leaves=2
num_cat=0
split_feature=40
split_gain=2.12221
threshold=0.060500434601522234
decision_type=2
left_child=-1
right_child=-2
leaf_value=0.012691213543642842 -0.014313730013367268
leaf_weight=9.8368898183107394 8.4167319238185865
leaf_count=36 40
internal_value=0
internal_weight=0
internal_count=76
is_linear=0
shrinkage=0.0394807


Tree=118
num_leaves=2
num_cat=0
split_feature=28
split_gain=1.60006
threshold=110581875000.00002
decision_type=2
left_child=-1
right_child=-2
leaf_value=-0.016593217377153305 0.028432426857427386
leaf_weight=3.1527474094182253 2.0168217532336712
leaf_count=45 31
internal_value=0
internal_weight=0
internal_count=76
is_linear=0
shrinkage=0.0394807


Tree=119
num_leaves=2
num_cat=0
split_feature=6
split_gain=2.60674
threshold=173883.33333333334
decision_type=2
left_child=-1
right_child=-2
leaf_value=-0.01338804636782407 0.016972151180369079
leaf_weight=10.400426879525186 7.650276079773902
leaf_count=44 32
internal_value=0
internal_weight=0
internal_count=76
is_linear=0
shrinkage=0.0394807


Tree=120
num_leaves=2
num_cat=0
split_feature=7
split_gain=3.57936
threshold=0.81073148938984507
decision_type=2
left_child=-1
right_child=-2
leaf_value=0.01363751206852672 -0.02262716446874647
leaf_weight=11.467646673321726 6.732847571372985
leaf_count=47 29
internal_value=0
internal_weight=0
internal_count=76
is_linear=0
shrinkage=0.0394807


Tree=121
num_leaves=2
num_cat=0
split_feature=18
split_gain=1.6293
threshold=0.21194789500675601
decision_type=2
left_child=-1
right_child=-2
leaf_value=0.018193496478125713 -0.027562011668739211
leaf_weight=3.2220161184668541 1.9449379406869409
leaf_count=22 54
internal_value=0
internal_weight=0
internal_count=76
is_linear=0
shrinkage=0.0394807


Tree=122
num_leaves=2
num_cat=0
split_feature=5
split_gain=2.80569
threshold=0.91388919860789808
decision_type=2
left_child=-1
right_child=-2
leaf_value=-0.019953444595624637 0.011977509469011728
leaf_weight=7.0409529954195049 10.973890438675879
leaf_count=24 52
internal_value=0
internal_weight=0
internal_count=76
is_linear=0
shrinkage=0.0394807


Tree=123
num_leaves=2
num_cat=0
split_feature=7
split_gain=3.41283
threshold=0.81073148938984507
decision_type=2
left_child=-1
right_child=-2
leaf_value=0.013321582058575226 -0.022234509197345088
leaf_weight=11.443801254034044 6.6542604863643637
leaf_count=47 29
internal_value=0
internal_weight=0
internal_count=76
is_linear=0
shrinkage=0.0394807


Tree=124
num_leaves=2
num_cat=0
split_feature=25
split_gain=1.60091
threshold=0.81230707947652026
decision_type=2
left_child=-1
right_child=-2
leaf_value=0.028276160504580213 -0.016755411524596003
leaf_weight=2.0267185438424349 3.130998220294714
leaf_count=27 49
internal_value=0
internal_weight=0
internal_count=76
is_linear=0
shrinkage=0.0394807


Tree=125
num_leaves=2
num_cat=0
split_feature=5
split_gain=2.65918
threshold=0.91388919860789808
decision_type=2
left_child=-1
right_child=-2
leaf_value=-0.019569119032067293 0.011678766764317545
leaf_weight=6.9643624275922802 10.869797825813292
leaf_count=24 52
internal_value=0
internal_weight=0
internal_count=76
is_linear=0
shrinkage=0.0394807


Tree=126
num_leaves=2
num_cat=0
split_feature=7
split_gain=3.26811
threshold=0.81073148938984507
decision_type=2
left_child=-1
right_child=-2
leaf_value=0.013014121395480549 -0.021932023653994551
leaf_weight=11.410922408103945 6.5741820335388175
leaf_count=47 29
internal_value=0
internal_weight=0
internal_count=76
is_linear=0
shrinkage=0.0394807


Tree=127
num_leaves=2
num_cat=0
split_feature=24
split_gain=1.55526
threshold=719380.07500000007
decision_type=2
left_child=-1
right_child=-2
leaf_value=-0.01652644536227935 0.02786624516131736
leaf_weight=3.1313962265849113 2.0253947004675865
leaf_count=48 28
internal_value=0
internal_weight=0
internal_count=76
is_linear=0
shrinkage=0.0394807


Tree=128
num_leaves=2
num_cat=0
split_feature=7
split_gain=2.34854
threshold=0.77273142302106268
decision_type=2
left_child=-1
right_child=-2
leaf_value=-0.012751819192906163 0.016398845385155823
leaf_weight=10.257177650928499 7.4266684353351584
leaf_count=44 32
internal_value=0
internal_weight=0
internal_count=76
is_linear=0
shrinkage=0.0394807


Tree=129
num_leaves=2
num_cat=0
split_feature=17
split_gain=2.29587
threshold=0.27560851931780078
decision_type=2
left_child=-1
right_child=-2
leaf_value=-0.015423309818000408 0.012947863609368069
leaf_weight=8.0653256401419657 9.9062475562095624
leaf_count=39 37
internal_value=0
internal_weight=0
internal_count=76
is_linear=0
shrinkage=0.0394807


Tree=130
num_leaves=2
num_cat=0
split_feature=18
split_gain=1.55247
threshold=0.21194789500675601
decision_type=2
left_child=-1
right_child=-2
leaf_value=0.017368185257000953 -0.027571538174820723
leaf_weight=3.2655061706900597 1.892115833237767
leaf_count=22 54
internal_value=0
internal_weight=0
internal_count=76
is_linear=0
shrinkage=0.0394807


Tree=131
num_leaves=2
num_cat=0
split_feature=5
split_gain=2.20925
threshold=0.91994313455468146
decision_type=2
left_child=-1
right_child=-2
leaf_value=-0.015934518357689432 0.01211844043629598
leaf_weight=7.940262675285342 9.746341794729231
leaf_count=27 49
internal_value=0
internal_weight=0
internal_count=76
is_linear=0
shrinkage=0.0394807


Tree=132
num_leaves=2
num_cat=0
split_feature=17
split_gain=2.17995
threshold=0.27560851931780078
decision_type=2
left_child=-1
right_child=-2
leaf_value=-0.01510590998381341 0.012630449212695308
leaf_weight=7.9820909723639515 9.8879640549421293
leaf_count=39 37
internal_value=0
internal_weight=0
internal_count=76
is_linear=0
shrinkage=0.0394807


Tree=133
num_leaves=2
num_cat=0
split_feature=25
split_gain=1.50654
threshold=0.81230707947652026
decision_type=2
left_child=-1
right_child=-2
leaf_value=0.026938221848638189 -0.016633930604339382
leaf_weight=2.0651092864573002 3.082673029974103
leaf_count=27 49
internal_value=0
internal_weight=0
internal_count=76
is_linear=0
shrinkage=0.0394807


Tree=134
num_leaves=2
num_cat=0
split_feature=16
split_gain=2.11291
threshold=0.32865897549059353
decision_type=2
left_child=-1
right_child=-2
leaf_value=-0.013982888492142362 0.013443397677560431
leaf_weight=8.9024156928062457 8.6148981451988202
leaf_count=33 43
internal_value=0
internal_weight=0
internal_count=76
is_linear=0
shrinkage=0.0394807


Tree=135
num_leaves=2
num_cat=0
split_feature=6
split_gain=1.38003
threshold=173883.33333333334
decision_type=2
left_child=-1
right_child=-2
leaf_value=0.0095527346892821299 -0.012745975776281733
leaf_weight=10.355491027235987 7.4294821619987479
leaf_count=44 32
internal_value=0
internal_weight=0
internal_count=76
is_linear=0
shrinkage=0.0394807


Tree=136
num_leaves=2
num_cat=0
split_feature=4
split_gain=1.49116
threshold=186560.00000000003
decision_type=2
left_child=-1
right_child=-2
leaf_value=-0.016452349009184318 0.026963018338186151
leaf_weight=3.1036675851792097 2.0454154685139656
leaf_count=48 28
internal_value=0
internal_weight=0
internal_count=76
is_linear=0
shrinkage=0.0394807


Tree=137
num_leaves=2
num_cat=0
split_feature=6
split_gain=2.09664
threshold=173883.33333333334
decision_type=2
left_child=-1
right_child=-2
leaf_value=-0.01205370672639354 0.015738050223676227
leaf_weight=10.157719776034357 7.251221925020217
leaf_count=44 32
internal_value=0
internal_weight=0
internal_count=76
is_linear=0
shrinkage=0.0394807


Tree=138
num_leaves=2
num_cat=0
split_feature=40
split_gain=2.14655
threshold=0.060500434601522234
decision_type=2
left_child=-1
right_child=-2
leaf_value=0.01310539141275097 -0.01437692238948917
leaf_weight=9.4439740777015704 8.3433734253048879
leaf_count=36 40
internal_value=0
internal_weight=0
internal_count=76
is_linear=0
shrinkage=0.0394807


Tree=139
num_leaves=2
num_cat=0
split_feature=25
split_gain=1.39962
threshold=0.81230707947652026
decision_type=2
left_child=-1
right_child=-2
leaf_value=0.025424346002122046 -0.01641101170914995
leaf_weight=2.114061689004302 3.0361309479922056
leaf_count=27 49
internal_value=0
internal_weight=0
internal_count=76
is_linear=0
shrinkage=0.0394807


Tree=140
num_leaves=2
num_cat=0
split_feature=16
split_gain=2.06457
threshold=0.32865897549059353
decision_type=2
left_child=-1
right_child=-2
leaf_value=-0.013815137978786238 0.013365686259284682
leaf_weight=8.8541489094495791 8.5728321596980077
leaf_count=33 43
internal_value=0
internal_weight=0
internal_count=76
is_linear=0
shrinkage=0.0394807


Tree=141
num_leaves=2
num_cat=0
split_feature=17
split_gain=2.03365
threshold=0.27560851931780078
decision_type=2
left_child=-1
right_child=-2
leaf_value=-0.014767270648546948 0.012187295231509755
leaf_weight=7.8504265695810345 9.8201896399259549
leaf_count=39 37
internal_value=0
internal_weight=0
internal_count=76
is_linear=0
shrinkage=0.0394807


Tree=142
num_leaves=2
num_cat=0
split_feature=28
split_gain=1.39181
threshold=110581875000.00002
decision_type=2
left_child=-1
right_child=-2
leaf_value=-0.016206797669273538 0.025607769105277782
leaf_weight=3.0576226618140936 2.0875152479857206
leaf_count=45 31
internal_value=0
internal_weight=0
internal_count=76
is_linear=0
shrinkage=0.0394807


Tree=143
num_leaves=2
num_cat=0
split_feature=5
split_gain=1.96989
threshold=0.91994313455468146
decision_type=2
left_child=-1
right_child=-2
leaf_value=-0.015191153311046679 0.011598439949522402
leaf_weight=7.770960912108424 9.5180483087897283
leaf_count=27 49
internal_value=0
internal_weight=0
internal_count=76
is_linear=0
shrinkage=0.0394807


Tree=144
num_leaves=2
num_cat=0
split_feature=6
split_gain=1.29644
threshold=173883.33333333334
decision_type=2
left_child=-1
right_child=-2
leaf_value=0.0092597953742623688 -0.012502850351816662
leaf_weight=10.245678737759592 7.3110522255301467
leaf_count=44 32
internal_value=0
internal_weight=0
internal_count=76
is_linear=0
shrinkage=0.0394807


Tree=145
num_leaves=2
num_cat=0
split_feature=24
split_gain=1.31567
threshold=719380.07500000007
decision_type=2
left_child=-1
right_child=-2
leaf_value=-0.016006214892796251 0.024565153989380493
leaf_weight=3.0202578101307154 2.1200114618986845
leaf_count=48 28
internal_value=0
internal_weight=0
internal_count=76
is_linear=0
shrinkage=0.0394807


Tree=146
num_leaves=2
num_cat=0
split_feature=6
split_gain=1.94683
threshold=173883.33333333334
decision_type=2
left_child=-1
right_child=-2
leaf_value=-0.011632541744261348 0.015351171027405153
leaf_weight=10.028907880187036 7.1303950771689406
leaf_count=44 32
internal_value=0
internal_weight=0
internal_count=76
is_linear=0
shrinkage=0.0394807


Tree=147
num_leaves=2
num_cat=0
split_feature=17
split_gain=1.85844
threshold=0.27560851931780078
decision_type=2
left_child=-1
right_child=-2
leaf_value=-0.014275094092781852 0.011592186437381233
leaf_weight=7.7482268214225796 9.8104383349418622
leaf_count=39 37
internal_value=0
internal_weight=0
internal_count=76
is_linear=0
shrinkage=0.0394807


Tree=148
num_leaves=2
num_cat=0
split_feature=18
split_gain=1.51034
threshold=0.21194789500675601
decision_type=2
left_child=-1
right_child=-2
leaf_value=0.016832275961518671 -0.027683877873216335
leaf_weight=3.2772631980478764 1.8629503911361096
leaf_count=22 54
internal_value=0
internal_weight=0
internal_count=76
is_linear=0
shrinkage=0.0394807


Tree=149
num_leaves=2
num_cat=0
split_feature=16
split_gain=1.94763
threshold=0.32865897549059353
decision_type=2
left_child=-1
right_child=-2
leaf_value=-0.013471093257660348 0.013120718038221851
leaf_weight=8.7271053045988101 8.4491870328783971
leaf_count=33 43
internal_value=0
internal_weight=0
internal_count=76
is_linear=0
shrinkage=0.0394807


Tree=150
num_leaves=2
num_cat=0
split_feature=40
split_gain=2.02852
threshold=0.060500434601522234
decision_type=2
left_child=-1
right_child=-2
leaf_value=0.012867912037564743 -0.014072629320180979
leaf_weight=9.2716744393110293 8.2171454951167089
leaf_count=36 40
internal_value=0
internal_weight=0
internal_count=76
is_linear=0
shrinkage=0.0394807


Tree=151
num_leaves=2
num_cat=0
split_feature=4
split_gain=1.27401
threshold=186560.00000000003
decision_type=2
left_child=-1
right_child=-2
leaf_value=-0.015946083115445358 0.023959725642269874
leaf_weight=2.9983270280063152 2.1342834997922182
leaf_count=48 28
internal_value=0
internal_weight=0
internal_count=76
is_linear=0
shrinkage=0.0394807


Tree=152
num_leaves=2
num_cat=0
split_feature=16
split_gain=1.85762
threshold=0.32865897549059353
decision_type=2
left_child=-1
right_child=-2
leaf_value=-0.013198508781152418 0.012870329262843712
leaf_weight=8.6850747615098971 8.362864822149275
leaf_count=33 43
internal_value=0
internal_weight=0
internal_count=76
is_linear=0
shrinkage=0.0394807


Tree=153
num_leaves=2
num_cat=0
split_feature=17
split_gain=1.79849
threshold=0.27560851931780078
decision_type=2
left_child=-1
right_child=-2
leaf_value=-0.01412542325422284 0.01146617188341406
leaf_weight=7.6479829922318485 9.719993054866789
leaf_count=39 37
internal_value=0
internal_weight=0
internal_count=76
is_linear=0
shrinkage=0.0394807


Tree=154
num_leaves=2
num_cat=0
split_feature=18
split_gain=1.45649
threshold=0.21194789500675601
decision_type=2
left_child=-1
right_child=-2
leaf_value=0.016273130838669537 -0.027699195584269164
leaf_weight=3.3034174256026745 1.8210771698504684
leaf_count=22 54
internal_value=0
internal_weight=0
internal_count=76
is_linear=0
shrinkage=0.0394807


Tree=155
num_leaves=2
num_cat=0
split_feature=6
split_gain=1.81468
threshold=173883.33333333334
decision_type=2
left_child=-1
right_child=-2
leaf_value=-0.011288709189252366 0.014949287812812236
leaf_weight=9.8980455398559588 7.0240264460444441
leaf_count=44 32
internal_value=0
internal_weight=0
internal_count=76
is_linear=0
shrinkage=0.0394807


Tree=156
num_leaves=2
num_cat=0
split_feature=40
split_gain=1.94283
threshold=0.060500434601522234
decision_type=2
left_child=-1
right_child=-2
leaf_value=0.01264586003854299 -0.013815454661975353
leaf_weight=9.2109233587980288 8.1526123136281949
leaf_count=36 40
internal_value=0
internal_weight=0
internal_count=76
is_linear=0
shrinkage=0.0394807


Tree=157
num_leaves=2
num_cat=0
split_feature=28
split_gain=1.31457
threshold=116133187700.00002
decision_type=2
left_child=-1
right_child=-2
leaf_value=-0.016011555193855071 0.024700133228637563
leaf_weight=3.0264524184167385 2.0894229151308537
leaf_count=48 28
internal_value=0
internal_weight=0
internal_count=76
is_linear=0
shrinkage=0.0394807


Tree=158
num_leaves=2
num_cat=0
split_feature=16
split_gain=1.77938
threshold=0.32865897549059353
decision_type=2
left_child=-1
right_child=-2
leaf_value=-0.012975646757116703 0.012660607842776018
leaf_weight=8.6125363856554049 8.2738947644829732
leaf_count=33 43
internal_value=0
internal_weight=0
internal_count=76
is_linear=0
shrinkage=0.0394807


Tree=159
num_leaves=2
num_cat=0
split_feature=40
split_gain=1.82119
threshold=0.060500434601522234
decision_type=2
left_child=-1
right_child=-2
leaf_value=0.012239857545187841 -0.013471783876195926
leaf_weight=9.1796790808439273 8.0674081817269307
leaf_count=36 40
internal_value=0
internal_weight=0
internal_count=76
is_linear=0
shrinkage=0.0394807


Tree=160
num_leaves=2
num_cat=0
split_feature=30
split_gain=1.27458
threshold=0.81376965675495494
decision_type=2
left_child=-1
right_child=-2
leaf_value=0.023698908709636833 -0.016236761181638779
leaf_weight=2.1544966334477067 2.9520048042759299
leaf_count=27 49
internal_value=0
internal_weight=0
internal_count=76
is_linear=0
shrinkage=0.0394807


Tree=161
num_leaves=2
num_cat=0
split_feature=6
split_gain=1.75017
threshold=173883.33333333334
decision_type=2
left_child=-1
right_child=-2
leaf_value=-0.011153545745443489 0.014737174811291689
leaf_weight=9.8033157587051409 6.9575997591018668
leaf_count=44 32
internal_value=0
internal_weight=0
internal_count=76
is_linear=0
shrinkage=0.0394807


Tree=162
num_leaves=2
num_cat=0
split_feature=17
split_gain=1.65417
threshold=0.27560851931780078
decision_type=2
left_child=-1
right_child=-2
leaf_value=-0.013654467749497544 0.011021030724466519
leaf_weight=7.5372985452413586 9.663332983851431
leaf_count=39 37
internal_value=0
internal_weight=0
internal_count=76
is_linear=0
shrinkage=0.0394807


Tree=163
num_leaves=2
num_cat=0
split_feature=18
split_gain=1.43113
threshold=0.21194789500675601
decision_type=2
left_child=-1
right_child=-2
leaf_value=0.016038024776692108 -0.027747677861899613
leaf_weight=3.3046628087759018 1.7953507788479326
leaf_count=22 54
internal_value=0
internal_weight=0
internal_count=76
is_linear=0
shrinkage=0.0394807


Tree=164
num_leaves=2
num_cat=0
split_feature=5
split_gain=1.69475
threshold=0.91994313455468146
decision_type=2
left_child=-1
right_child=-2
leaf_value=-0.014328326292122712 0.010941767815043413
leaf_weight=7.507198333740237 9.2128316983580572
leaf_count=27 49
internal_value=0
internal_weight=0
internal_count=76
is_linear=0
shrinkage=0.0394807


Tree=165
num_leaves=2
num_cat=0
split_feature=40
split_gain=1.74975
threshold=0.060500434601522234
decision_type=2
left_child=-1
right_child=-2
leaf_value=0.012063720378255236 -0.013238168150694347
leaf_weight=9.1125596389174479 8.000157453119753
leaf_count=36 40
internal_value=0
internal_weight=0
internal_count=76
is_linear=0
shrinkage=0.0394807


Tree=166
num_leaves=3
num_cat=0
split_feature=32 4
split_gain=1.42993 0.381955
threshold=-0.084621055101482143 176880.00000000003
decision_type=2 2
left_child=-1 -2
right_child=1 -3
leaf_value=0.026979349795737548 -0.00057229428185177997 -0.02841649580290943
leaf_weight=1.9644676074385641 1.3968405192717912 1.7276907665655015
leaf_count=15 23 38
internal_value=0 -0.0160046
internal_weight=0 3.12453
internal_count=76 61
is_linear=0
shrinkage=0.0394807


Tree=167
num_leaves=2
num_cat=0
split_feature=6
split_gain=1.70114
threshold=173883.33333333334
decision_type=2
left_child=-1
right_child=-2
leaf_value=-0.011077656338310971 0.014592939873939691
leaf_weight=9.6946335583925265 6.8782119899988166
leaf_count=44 32
internal_value=0
internal_weight=0
internal_count=76
is_linear=0
shrinkage=0.0394807


Tree=168
num_leaves=2
num_cat=0
split_feature=17
split_gain=1.53465
threshold=0.27560851931780078
decision_type=2
left_child=-1
right_child=-2
leaf_value=-0.013213276090355249 0.010655912578209404
leaf_weight=7.4443508014082935 9.6286152601242048
leaf_count=39 37
internal_value=0
internal_weight=0
internal_count=76
is_linear=0
shrinkage=0.0394807


Tree=169
num_leaves=2
num_cat=0
split_feature=28
split_gain=1.58825
threshold=125845114000.00002
decision_type=2
left_child=-1
right_child=-2
leaf_value=-0.016515428458308487 0.029104657802105447
leaf_weight=3.1699095740914345 1.9035308025777338
leaf_count=51 25
internal_value=0
internal_weight=0
internal_count=76
is_linear=0
shrinkage=0.0394807


Tree=170
num_leaves=2
num_cat=0
split_feature=6
split_gain=1.65123
threshold=173883.33333333334
decision_type=2
left_child=-1
right_child=-2
leaf_value=-0.010956520294303298 0.014374552858695619
leaf_weight=9.6621796786785143 6.8575174808502188
leaf_count=44 32
internal_value=0
internal_weight=0
internal_count=76
is_linear=0
shrinkage=0.0394807


Tree=171
num_leaves=2
num_cat=0
split_feature=17
split_gain=1.42253
threshold=0.27560851931780078
decision_type=2
left_child=-1
right_child=-2
leaf_value=-0.012794494862765696 0.010214210252056818
leaf_weight=7.3973912224173572 9.6538593322038633
leaf_count=39 37
internal_value=0
internal_weight=0
internal_count=76
is_linear=0
shrinkage=0.0394807


Tree=172
num_leaves=2
num_cat=0
split_feature=28
split_gain=1.47856
threshold=125845114000.00002
decision_type=2
left_child=-1
right_child=-2
leaf_value=-0.016269380508834565 0.027586665323557739
leaf_weight=3.1204621810466051 1.9447050793096421
leaf_count=51 25
internal_value=0
internal_weight=0
internal_count=76
is_linear=0
shrinkage=0.0394807


Tree=173
num_leaves=2
num_cat=0
split_feature=16
split_gain=1.67067
threshold=0.32865897549059353
decision_type=2
left_child=-1
right_child=-2
leaf_value=-0.01274067854440443 0.012377680651913837
leaf_weight=8.410216689109804 8.1040285155177099
leaf_count=33 43
internal_value=0
internal_weight=0
internal_count=76
is_linear=0
shrinkage=0.0394807


Tree=174
num_leaves=2
num_cat=0
split_feature=17
split_gain=1.36317
threshold=0.27560851931780078
decision_type=2
left_child=-1
right_child=-2
leaf_value=-0.012589058167347714 0.009995910750161454
leaf_weight=7.3419966027140644 9.6274002194404584
leaf_count=39 37
internal_value=0
internal_weight=0
internal_count=76
is_linear=0
shrinkage=0.0394807


Tree=175
num_leaves=2
num_cat=0
split_feature=28
split_gain=1.39007
threshold=125845114000.00002
decision_type=2
left_child=-1
right_child=-2
leaf_value=-0.016070251153551703 0.026342147579245936
leaf_weight=3.0792722199112177 1.9779280126094816
leaf_count=51 25
internal_value=0
internal_weight=0
internal_count=76
is_linear=0
shrinkage=0.0394807


Tree=176
num_leaves=2
num_cat=0
split_feature=16
split_gain=1.60414
threshold=0.32865897549059353
decision_type=2
left_child=-1
right_child=-2
leaf_value=-0.012481211179755963 0.012200091235469101
leaf_weight=8.3789855688810366 8.0453459694981557
leaf_count=33 43
internal_value=0
internal_weight=0
internal_count=76
is_linear=0
shrinkage=0.0394807


Tree=177
num_leaves=2
num_cat=0
split_feature=40
split_gain=1.66085
threshold=0.060500434601522234
decision_type=2
left_child=-1
right_child=-2
leaf_value=0.011871524079194321 -0.01293476249378318
leaf_weight=8.953819505870344 7.9350171014666548
leaf_count=36 40
internal_value=0
internal_weight=0
internal_count=76
is_linear=0
shrinkage=0.0394807


Tree=178
num_leaves=2
num_cat=0
split_feature=18
split_gain=1.34575
threshold=0.21194789500675601
decision_type=2
left_child=-1
right_child=-2
leaf_value=0.015181145980942591 -0.027767235665782174
leaf_weight=3.3192903213202953 1.7294205082580445
leaf_count=22 54
internal_value=0
internal_weight=0
internal_count=76
is_linear=0
shrinkage=0.0394807


Tree=179
num_leaves=2
num_cat=0
split_feature=40
split_gain=1.56792
threshold=0.060500434601522234
decision_type=2
left_child=-1
right_child=-2
leaf_value=-0.012806763770990685 0.011658373859399419
leaf_weight=8.0309566482901591 8.3053695410490018
leaf_count=36 40
internal_value=0
internal_weight=0
internal_count=76
is_linear=0
shrinkage=0.0394807


Tree=180
num_leaves=2
num_cat=0
split_feature=40
split_gain=1.52285
threshold=0.060500434601522234
decision_type=2
left_child=-1
right_child=-2
leaf_value=0.011341310426797166 -0.012477037013211463
leaf_weight=8.9670460596680659 7.8436301574110976
leaf_count=36 40
internal_value=0
internal_weight=0
internal_count=76
is_linear=0
shrinkage=0.0394807


Tree=181
num_leaves=2
num_cat=0
split_feature=28
split_gain=1.32074
threshold=125845114000.00002
decision_type=2
left_child=-1
right_child=-2
leaf_value=-0.015880665209630447 0.025483449215672981
leaf_weight=3.0334956161677837 1.9936149856075642
leaf_count=51 25
internal_value=0
internal_weight=0
internal_count=76
is_linear=0
shrinkage=0.0394807


Tree=182
num_leaves=2
num_cat=0
split_feature=16
split_gain=1.50275
threshold=0.32865897549059353
decision_type=2
left_child=-1
right_child=-2
leaf_value=-0.012145521812358473 0.011893060475183201
leaf_weight=8.2945207208395022 7.9269829764962187
leaf_count=33 43
internal_value=0
internal_weight=0
internal_count=76
is_linear=0
shrinkage=0.0394807


Tree=183
num_leaves=2
num_cat=0
split_feature=40
split_gain=1.42454
threshold=0.060500434601522234
decision_type=2
left_child=-1
right_child=-2
leaf_value=0.01097167063034042 -0.012144357499708132
leaf_weight=8.9339745268225688 7.7683642506599417
leaf_count=36 40
internal_value=0
internal_weight=0
internal_count=76
is_linear=0
shrinkage=0.0394807


Tree=184
num_leaves=2
num_cat=0
split_feature=28
split_gain=1.23289
threshold=125845114000.00002
decision_type=2
left_child=-1
right_child=-2
leaf_value=-0.015623046235822512 0.024263375804536035
leaf_weight=2.985365086235106 2.0282725095748901
leaf_count=51 25
internal_value=0
internal_weight=0
internal_count=76
is_linear=0
shrinkage=0.0394807


Tree=185
num_leaves=2
num_cat=0
split_feature=7
split_gain=1.62318
threshold=0.77273142302106268
decision_type=2
left_child=-1
right_child=-2
leaf_value=-0.010994132432503922 0.014420296439283107
leaf_weight=9.3859794437885302 6.7222460210323325
leaf_count=44 32
internal_value=0
internal_weight=0
internal_count=76
is_linear=0
shrinkage=0.0394807


Tree=186
num_leaves=2
num_cat=0
split_feature=17
split_gain=1.29744
threshold=0.27560851931780078
decision_type=2
left_child=-1
right_child=-2
leaf_value=-0.012411980396779404 0.0098304790381831767
leaf_weight=7.2041230127215412 9.4487930536270124
leaf_count=39 37
internal_value=0
internal_weight=0
internal_count=76
is_linear=0
shrinkage=0.0394807


Tree=187
num_leaves=2
num_cat=0
split_feature=18
split_gain=1.33225
threshold=0.21194789500675601
decision_type=2
left_child=-1
right_child=-2
leaf_value=0.015165570092652221 -0.027829303969015038
leaf_weight=3.2963529750704765 1.7036530934274194
leaf_count=22 54
internal_value=0
internal_weight=0
internal_count=76
is_linear=0
shrinkage=0.0394807


Tree=188
num_leaves=2
num_cat=0
split_feature=6
split_gain=3.04218
threshold=178055.83333333334
decision_type=2
left_child=-1
right_child=-2
leaf_value=-0.013223687228169736 0.022579875540310147
leaf_weight=10.30821840465069 5.7691141217946997
leaf_count=47 29
internal_value=0
internal_weight=0
internal_count=76
is_linear=0
shrinkage=0.0394807


Tree=189
num_leaves=2
num_cat=0
split_feature=40
split_gain=1.41344
threshold=0.060500434601522234
decision_type=2
left_child=-1
right_child=-2
leaf_value=0.011001907081868555 -0.01206309123709539
leaf_weight=8.8699598014354724 7.7675139158964148
leaf_count=36 40
internal_value=0
internal_weight=0
internal_count=76
is_linear=0
shrinkage=0.0394807


Tree=190
num_leaves=2
num_cat=0
split_feature=25
split_gain=1.16679
threshold=0.81230707947652026
decision_type=2
left_child=-1
right_child=-2
leaf_value=0.022375716552885217 -0.016163474213238854
leaf_weight=2.1545470990240574 2.83556860499084
leaf_count=27 49
internal_value=0
internal_weight=0
internal_count=76
is_linear=0
shrinkage=0.0394807


Tree=191
num_leaves=2
num_cat=0
split_feature=6
split_gain=1.44478
threshold=173883.33333333334
decision_type=2
left_child=-1
right_child=-2
leaf_value=-0.010369425734631463 0.013685486594072026
leaf_weight=9.381392106413843 6.6504246741533271
leaf_count=44 32
internal_value=0
internal_weight=0
internal_count=76
is_linear=0
shrinkage=0.0394807


Tree=192
num_leaves=2
num_cat=0
split_feature=40
split_gain=1.36744
threshold=0.060500434601522234
decision_type=2
left_child=-1
right_child=-2
leaf_value=0.010827346738050525 -0.011888534285269849
leaf_weight=8.8526260778307932 7.7433027178049079
leaf_count=36 40
internal_value=0
internal_weight=0
internal_count=76
is_linear=0
shrinkage=0.0394807


Tree=193
num_leaves=2
num_cat=0
split_feature=18
split_gain=1.29861
threshold=0.21194789500675601
decision_type=2
left_child=-1
right_child=-2
leaf_value=0.014825847840224345 -0.027838076944213933
leaf_weight=3.3070729169994593 1.6750103039667008
leaf_count=22 54
internal_value=0
internal_weight=0
internal_count=76
is_linear=0
shrinkage=0.0394807


Tree=194
num_leaves=2
num_cat=0
split_feature=16
split_gain=1.4481
threshold=0.32865897549059353
decision_type=2
left_child=-1
right_child=-2
leaf_value=-0.012033068629520366 0.011727484099901708
leaf_weight=8.1564868092536909 7.8410931602120408
leaf_count=33 43
internal_value=0
internal_weight=0
internal_count=76
is_linear=0
shrinkage=0.0394807


Tree=195
num_leaves=2
num_cat=0
split_feature=40
split_gain=1.29756
threshold=0.060500434601522234
decision_type=2
left_child=-1
right_child=-2
leaf_value=0.010572725476143836 -0.011618341823902766
leaf_weight=8.8362889811396617 7.6733184456825247
leaf_count=36 40
internal_value=0
internal_weight=0
internal_count=76
is_linear=0
shrinkage=0.0394807


Tree=196
num_leaves=2
num_cat=0
split_feature=25
split_gain=1.1028
threshold=0.81230707947652026
decision_type=2
left_child=-1
right_child=-2
leaf_value=0.021499128313412941 -0.015981174033854791
leaf_weight=2.1802396606653929 2.7879220666363835
leaf_count=27 49
internal_value=0
internal_weight=0
internal_count=76
is_linear=0
shrinkage=0.0394807


Tree=197
num_leaves=2
num_cat=0
split_feature=6
split_gain=2.89753
threshold=178055.83333333334
decision_type=2
left_child=-1
right_child=-2
leaf_value=-0.01301097570204719 0.02218701799601723
leaf_weight=10.187029346823691 5.6766628399491319
leaf_count=47 29
internal_value=0
internal_weight=0
internal_count=76
is_linear=0
shrinkage=0.0394807


Tree=198
num_leaves=2
num_cat=0
split_feature=40
split_gain=1.26561
threshold=0.060500434601522234
decision_type=2
left_child=-1
right_child=-2
leaf_value=0.010459854638806141 -0.011490668321263973
leaf_weight=8.8051406815648097 7.6519033983349791
leaf_count=36 40
internal_value=0
internal_weight=0
internal_count=76
is_linear=0
shrinkage=0.0394807


Tree=199
num_leaves=2
num_cat=0
split_feature=28
split_gain=1.07795
threshold=125845114000.00002
decision_type=2
left_child=-1
right_child=-2
leaf_value=-0.015115970628905408 0.022201283782093732
leaf_weight=2.889013490639627 2.0712301414459944
leaf_count=51 25
internal_value=0
internal_weight=0
internal_count=76
is_linear=0
shrinkage=0.0394807


Tree=200
num_leaves=2
num_cat=0
split_feature=7
split_gain=1.39111
threshold=0.77273142302106268
decision_type=2
left_child=-1
right_child=-2
leaf_value=-0.010283721829706455 0.01347448673601602
leaf_weight=9.2432183474302274 6.5726837217807779
leaf_count=44 32
internal_value=0
internal_weight=0
internal_count=76
is_linear=0
shrinkage=0.0394807


Tree=201
num_leaves=2
num_cat=0
split_feature=40
split_gain=1.2155
threshold=0.060500434601522234
decision_type=2
left_child=-1
right_child=-2
leaf_value=0.010256093248842359 -0.011286548127971557
leaf_weight=8.7808468788862246 7.6291186138987532
leaf_count=36 40
internal_value=0
internal_weight=0
internal_count=76
is_linear=0
shrinkage=0.0394807


Tree=202
num_leaves=2
num_cat=0
split_feature=30
split_gain=1.03276
threshold=0.81376965675495494
decision_type=2
left_child=-1
right_child=-2
leaf_value=0.020563621716582471 -0.015726774619438926
leaf_weight=2.2069304846227169 2.7387133645825088
leaf_count=27 49
internal_value=0
internal_weight=0
internal_count=76
is_linear=0
shrinkage=0.0394807


Tree=203
num_leaves=2
num_cat=0
split_feature=16
split_gain=1.36867
threshold=0.32865897549059353
decision_type=2
left_child=-1
right_child=-2
leaf_value=-0.011804019360867292 0.011448720399165694
leaf_weight=8.0423202440142614 7.7448552846908578
leaf_count=33 43
internal_value=0
internal_weight=0
internal_count=76
is_linear=0
shrinkage=0.0394807


Tree=204
num_leaves=2
num_cat=0
split_feature=17
split_gain=1.16736
threshold=0.27560851931780078
decision_type=2
left_child=-1
right_child=-2
leaf_value=-0.01193206949150947 0.0094016078006666157
leaf_weight=7.0057887062430408 9.3108978718519193
leaf_count=39 37
internal_value=0
internal_weight=0
internal_count=76
is_linear=0
shrinkage=0.0394807


Tree=205
num_leaves=3
num_cat=0
split_feature=32 3
split_gain=0.984748 0.463667
threshold=-0.084621055101482143 0.92997788975730167
decision_type=2 2
left_child=-1 -2
right_child=1 -3
leaf_value=0.021006826348127616 -0.029382950910210454 0.0025219487178197502
leaf_weight=2.0926950704306364 1.5363808274269106 1.3089087433181701
leaf_count=15 12 49
internal_value=0 -0.0146686
internal_weight=0 2.84529
internal_count=76 61
is_linear=0
shrinkage=0.0394807


Tree=206
num_leaves=2
num_cat=0
split_feature=6
split_gain=2.77922
threshold=178055.83333333334
decision_type=2
left_child=-1
right_child=-2
leaf_value=-0.012812043766898732 0.021854061284021321
leaf_weight=10.062287449836729 5.6166534349322328
leaf_count=47 29
internal_value=0
internal_weight=0
internal_count=76
is_linear=0
shrinkage=0.0394807


Tree=207
num_leaves=2
num_cat=0
split_feature=40
split_gain=1.17646
threshold=0.060500434601522234
decision_type=2
left_child=-1
right_child=-2
leaf_value=0.010136189328587166 -0.011134672822378235
leaf_weight=8.7061875239014643 7.582422897219657
leaf_count=36 40
internal_value=0
internal_weight=0
internal_count=76
is_linear=0
shrinkage=0.0394807


Tree=208
num_leaves=2
num_cat=0
split_feature=28
split_gain=1.41991
threshold=141488442250.00003
decision_type=2
left_child=-1
right_child=-2
leaf_value=-0.016066412011922916 0.027658340882084988
leaf_weight=3.0718221566639841 1.8573017055168746
leaf_count=54 22
internal_value=0
internal_weight=0
internal_count=76
is_linear=0
shrinkage=0.0394807


Tree=209
num_leaves=2
num_cat=0
split_feature=16
split_gain=1.31937
threshold=0.32865897549059353
decision_type=2
left_child=-1
right_child=-2
leaf_value=-0.011625124905633957 0.011298156860812827
leaf_weight=7.9724366515874863 7.6863338723778725
leaf_count=33 43
internal_value=0
internal_weight=0
internal_count=76
is_linear=0
shrinkage=0.0394807


Tree=210
num_leaves=2
num_cat=0
split_feature=1
split_gain=1.10882
threshold=0.9919756087060404
decision_type=2
left_child=-1
right_child=-2
leaf_value=0.0093368346737746997 -0.011493264426370256
leaf_weight=9.1067623049020785 7.0795571468770495
leaf_count=36 40
internal_value=0
internal_weight=0
internal_count=76
is_linear=0
shrinkage=0.0394807


Tree=211
num_leaves=2
num_cat=0
split_feature=28
split_gain=1.33045
threshold=141488442250.00003
decision_type=2
left_child=-1
right_child=-2
leaf_value=-0.015830805430252715 0.026412965843233226
leaf_weight=3.0254300972446799 1.8863883279263971
leaf_count=54 22
internal_value=0
internal_weight=0
internal_count=76
is_linear=0
shrinkage=0.0394807


Tree=212
num_leaves=2
num_cat=0
split_feature=7
split_gain=1.3125
threshold=0.77273142302106268
decision_type=2
left_child=-1
right_child=-2
leaf_value=-0.010040213739009275 0.013224185776973417
leaf_weight=9.0833183079957944 6.4733060970902452
leaf_count=44 32
internal_value=0
internal_weight=0
internal_count=76
is_linear=0
shrinkage=0.0394807


Tree=213
num_leaves=2
num_cat=0
split_feature=28
split_gain=1.1057
threshold=116133187700.00002
decision_type=2
left_child=-1
right_child=-2
leaf_value=0.0080179536307751747 -0.013458549188659959
leaf_weight=10.282065141946079 5.8692050650715819
leaf_count=48 28
internal_value=0
internal_weight=0
internal_count=76
is_linear=0
shrinkage=0.0394807


Tree=214
num_leaves=2
num_cat=0
split_feature=28
split_gain=1.25148
threshold=141488442250.00003
decision_type=2
left_child=-1
right_child=-2
leaf_value=-0.015567580644897961 0.025343198601644398
leaf_weight=2.977493376005441 1.9147038878872988
leaf_count=54 22
internal_value=0
internal_weight=0
internal_count=76
is_linear=0
shrinkage=0.0394807


Tree=215
num_leaves=2
num_cat=0
split_feature=5
split_gain=1.25002
threshold=0.91994313455468146
decision_type=2
left_child=-1
right_child=-2
leaf_value=-0.012885920015238273 0.0096539093598686943
leaf_weight=6.9018255174160013 8.6300371214747411
leaf_count=27 49
internal_value=0
internal_weight=0
internal_count=76
is_linear=0
shrinkage=0.0394807


Tree=216
num_leaves=2
num_cat=0
split_feature=17
split_gain=1.09852
threshold=0.32734704269186204
decision_type=2
left_child=-1
right_child=-2
leaf_value=-0.008517375086994794 0.012435865625909391
leaf_weight=9.3732282258570212 6.6786492615938178
leaf_count=48 28
internal_value=0
internal_weight=0
internal_count=76
is_linear=0
shrinkage=0.0394807


Tree=217
num_leaves=2
num_cat=0
split_feature=28
split_gain=1.17052
threshold=141488442250.00003
decision_type=2
left_child=-1
right_child=-2
leaf_value=-0.015341137392382371 0.024177944610760633
leaf_weight=2.9342548199929297 1.9405521983280776
leaf_count=54 22
internal_value=0
internal_weight=0
internal_count=76
is_linear=0
shrinkage=0.0394807


Tree=218
num_leaves=2
num_cat=0
split_feature=6
split_gain=2.61445
threshold=178055.83333333334
decision_type=2
left_child=-1
right_child=-2
leaf_value=-0.01245443871902557 0.021451728292843641
leaf_weight=9.9144805893301946 5.5170557126402864
leaf_count=47 29
internal_value=0
internal_weight=0
internal_count=76
is_linear=0
shrinkage=0.0394807


Tree=219
num_leaves=2
num_cat=0
split_feature=40
split_gain=1.10403
threshold=0.060500434601522234
decision_type=2
left_child=-1
right_child=-2
leaf_value=0.0099109026514613528 -0.010853598866261381
leaf_weight=8.5254075378179568 7.5037935152649871
leaf_count=36 40
internal_value=0
internal_weight=0
internal_count=76
is_linear=0
shrinkage=0.0394807


Tree=220
num_leaves=2
num_cat=0
split_feature=28
split_gain=1.09358
threshold=141488442250.00003
decision_type=2
left_child=-1
right_child=-2
leaf_value=-0.015110111246919425 0.023019699869653458
leaf_weight=2.8928744625300169 1.970906304195523
leaf_count=54 22
internal_value=0
internal_weight=0
internal_count=76
is_linear=0
shrinkage=0.0394807


Tree=221
num_leaves=2
num_cat=0
split_feature=16
split_gain=1.21781
threshold=0.32865897549059353
decision_type=2
left_child=-1
right_child=-2
leaf_value=-0.011210607711086546 0.010980598198054949
leaf_weight=7.8434516564011574 7.5787099301815033
leaf_count=33 43
internal_value=0
internal_weight=0
internal_count=76
is_linear=0
shrinkage=0.0394807


Tree=222
num_leaves=2
num_cat=0
split_feature=1
split_gain=1.03416
threshold=0.9919756087060404
decision_type=2
left_child=-1
right_child=-2
leaf_value=0.0090276127400398982 -0.01125745181105085
leaf_weight=8.984254375100134 6.9455733634531507
leaf_count=36 40
internal_value=0
internal_weight=0
internal_count=76
is_linear=0
shrinkage=0.0394807


Tree=223
num_leaves=2
num_cat=0
split_feature=28
split_gain=1.02671
threshold=141488442250.00003
decision_type=2
left_child=-1
right_child=-2
leaf_value=-0.014875567658942025 0.022046562754918526
leaf_weight=2.8509746468625963 1.9951780773699281
leaf_count=54 22
internal_value=0
internal_weight=0
internal_count=76
is_linear=0
shrinkage=0.0394807


Tree=224
num_leaves=2
num_cat=0
split_feature=6
split_gain=1.19884
threshold=173883.33333333334
decision_type=2
left_child=-1
right_child=-2
leaf_value=-0.0096039573487123695 0.012802912366248555
leaf_weight=8.9565966725349409 6.3675183281302461
leaf_count=44 32
internal_value=0
internal_weight=0
internal_count=76
is_linear=0
shrinkage=0.0394807


Tree=225
num_leaves=2
num_cat=0
split_feature=15
split_gain=1.09664
threshold=0.20378918087777614
decision_type=2
left_child=-1
right_child=-2
leaf_value=0.012047186825471684 -0.0088824052587034453
leaf_weight=6.8779380694031724 9.018237251788376
leaf_count=36 40
internal_value=0
internal_weight=0
internal_count=76
is_linear=0
shrinkage=0.0394807


Tree=226
num_leaves=2
num_cat=0
split_feature=30
split_gain=0.968926
threshold=0.81376965675495494
decision_type=2
left_child=-1
right_child=-2
leaf_value=0.019853696180111714 -0.015683902141565564
leaf_weight=2.1813897890970111 2.6460469621233642
leaf_count=27 49
internal_value=0
internal_weight=0
internal_count=76
is_linear=0
shrinkage=0.0394807


Tree=227
num_leaves=2
num_cat=0
split_feature=40
split_gain=1.19183
threshold=0.060500434601522234
decision_type=2
left_child=-1
right_child=-2
leaf_value=-0.011515438676345755 0.010524823917512121
leaf_weight=7.5137886181473732 7.7871559038758278
leaf_count=36 40
internal_value=0
internal_weight=0
internal_count=76
is_linear=0
shrinkage=0.0394807


Tree=228
num_leaves=2
num_cat=0
split_feature=17
split_gain=1.02967
threshold=0.32734704269186204
decision_type=2
left_child=-1
right_child=-2
leaf_value=-0.0083456241874768911 0.012043485124849148
leaf_weight=9.259118873625992 6.6212326735258111
leaf_count=48 28
internal_value=0
internal_weight=0
internal_count=76
is_linear=0
shrinkage=0.0394807


Tree=229
num_leaves=2
num_cat=0
split_feature=30
split_gain=0.916586
threshold=0.81376965675495494
decision_type=2
left_child=-1
right_child=-2
leaf_value=0.019070125520244494 -0.015470916343579097
leaf_weight=2.2089439984411001 2.6143254549242556
leaf_count=27 49
internal_value=0
internal_weight=0
internal_count=76
is_linear=0
shrinkage=0.0394807


Tree=230
num_leaves=2
num_cat=0
split_feature=7
split_gain=1.17127
threshold=0.77273142302106268
decision_type=2
left_child=-1
right_child=-2
leaf_value=-0.0095080815443133009 0.012665367907494993
leaf_weight=8.9137779548764211 6.3639511764049539
leaf_count=44 32
internal_value=0
internal_weight=0
internal_count=76
is_linear=0
shrinkage=0.0394807


Tree=231
num_leaves=2
num_cat=0
split_feature=1
split_gain=1.01007
threshold=0.9919756087060404
decision_type=2
left_child=-1
right_child=-2
leaf_value=0.008916248244008421 -0.011161249363078723
leaf_weight=8.9525252133607847 6.9276617281138906
leaf_count=36 40
internal_value=0
internal_weight=0
internal_count=76
is_linear=0
shrinkage=0.0394807


Tree=232
num_leaves=2
num_cat=0
split_feature=25
split_gain=0.865508
threshold=0.81230707947652026
decision_type=2
left_child=-1
right_child=-2
leaf_value=0.018277606052960936 -0.015265797488849538
leaf_weight=2.2375053334981203 2.5825251629576087
leaf_count=27 49
internal_value=0
internal_weight=0
internal_count=76
is_linear=0
shrinkage=0.0394807


Tree=233
num_leaves=2
num_cat=0
split_feature=5
split_gain=1.17682
threshold=0.91994313455468146
decision_type=2
left_child=-1
right_child=-2
leaf_value=-0.012575662313762804 0.0094875825237402851
leaf_weight=6.750360995531083 8.5287637412548047
leaf_count=27 49
internal_value=0
internal_weight=0
internal_count=76
is_linear=0
shrinkage=0.0394807


Tree=234
num_leaves=2
num_cat=0
split_feature=15
split_gain=1.05035
threshold=0.20378918087777614
decision_type=2
left_child=-1
right_child=-2
leaf_value=0.011806759058218014 -0.0087450938958285249
leaf_weight=6.8372766375541696 8.9491012617945653
leaf_count=36 40
internal_value=0
internal_weight=0
internal_count=76
is_linear=0
shrinkage=0.0394807


Tree=235
num_leaves=2
num_cat=0
split_feature=28
split_gain=0.973853
threshold=141488442250.00003
decision_type=2
left_child=-1
right_child=-2
leaf_value=-0.014640124419103102 0.021411954138179666
leaf_weight=2.8055463014170527 2.0002103559672832
leaf_count=54 22
internal_value=0
internal_weight=0
internal_count=76
is_linear=0
shrinkage=0.0394807


Tree=236
num_leaves=2
num_cat=0
split_feature=40
split_gain=1.14596
threshold=0.060500434601522234
decision_type=2
left_child=-1
right_child=-2
leaf_value=-0.011333635239034041 0.010378712705753586
leaf_weight=7.441128134727478 7.7189252190291882
leaf_count=36 40
internal_value=0
internal_weight=0
internal_count=76
is_linear=0
shrinkage=0.0394807


Tree=237
num_leaves=2
num_cat=0
split_feature=17
split_gain=0.99223
threshold=0.27560851931780078
decision_type=2
left_child=-1
right_child=-2
leaf_value=-0.011394272620791696 0.008644422392371431
leaf_weight=6.6979742310941228 9.062449783086775
leaf_count=39 37
internal_value=0
internal_weight=0
internal_count=76
is_linear=0
shrinkage=0.0394807


Tree=238
num_leaves=2
num_cat=0
split_feature=28
split_gain=0.927938
threshold=141488442250.00003
decision_type=2
left_child=-1
right_child=-2
leaf_value=-0.014469363565997323 0.020713146988582669
leaf_weight=2.7756443549878895 2.0175616536289454
leaf_count=54 22
internal_value=0
internal_weight=0
internal_count=76
is_linear=0
shrinkage=0.0394807


Tree=239
num_leaves=2
num_cat=0
split_feature=6
split_gain=2.41091
threshold=178055.83333333334
decision_type=2
left_child=-1
right_child=-2
leaf_value=-0.012002494409891961 0.020859708112588662
leaf_weight=9.7224888205528242 5.4191340282559404
leaf_count=47 29
internal_value=0
internal_weight=0
internal_count=76
is_linear=0
shrinkage=0.0394807


Tree=240
num_leaves=2
num_cat=0
split_feature=15
split_gain=1.01225
threshold=0.20378918087777614
decision_type=2
left_child=-1
right_child=-2
leaf_value=0.01154587359588243 -0.0086573442021829518
leaf_weight=6.836672831326724 8.8939526565372926
leaf_count=36 40
internal_value=0
internal_weight=0
internal_count=76
is_linear=0
shrinkage=0.0394807


Tree=241
num_leaves=2
num_cat=0
split_feature=28
split_gain=0.864551
threshold=141488442250.00003
decision_type=2
left_child=-1
right_child=-2
leaf_value=-0.014223185865082609 0.01970976521817969
leaf_weight=2.7360107069835067 2.0446470137685537
leaf_count=54 22
internal_value=0
internal_weight=0
internal_count=76
is_linear=0
shrinkage=0.0394807


Tree=242
num_leaves=2
num_cat=0
split_feature=40
split_gain=1.12103
threshold=0.060500434601522234
decision_type=2
left_child=-1
right_child=-2
leaf_value=-0.01115881903066333 0.010338954745896328
leaf_weight=7.4299785643815994 7.6976583302021027
leaf_count=36 40
internal_value=0
internal_weight=0
internal_count=76
is_linear=0
shrinkage=0.0394807


Tree=243
num_leaves=2
num_cat=0
split_feature=1
split_gain=0.976323
threshold=0.9919756087060404
decision_type=2
left_child=-1
right_child=-2
leaf_value=0.0087606452982037508 -0.011087516857444095
leaf_weight=8.8492517098784429 6.8551669269800195
leaf_count=36 40
internal_value=0
internal_weight=0
internal_count=76
is_linear=0
shrinkage=0.0394807


Tree=244
num_leaves=3
num_cat=0
split_feature=34 2
split_gain=0.852376 0.301394
threshold=-0.13403126867222606 187490.00000000003
decision_type=2 2
left_child=-1 -2
right_child=1 -3
leaf_value=0.018238667504937547 -0.028309676145969308 -0.001102721614334276
leaf_weight=2.208292294293642 1.3255160786211493 1.234181218780577
leaf_count=18 38 20
internal_value=0 -0.0152357
internal_weight=0 2.5597
internal_count=76 58
is_linear=0
shrinkage=0.0394807


Tree=245
num_leaves=2
num_cat=0
split_feature=6
split_gain=2.3068
threshold=178055.83333333334
decision_type=2
left_child=-1
right_child=-2
leaf_value=-0.011678267615743547 0.020520040867712402
leaf_weight=9.7160214856266958 5.3931663259863862
leaf_count=47 29
internal_value=0
internal_weight=0
internal_count=76
is_linear=0
shrinkage=0.0394807


Tree=246
num_leaves=2
num_cat=0
split_feature=15
split_gain=0.975377
threshold=0.20378918087777614
decision_type=2
left_child=-1
right_child=-2
leaf_value=0.011326822941290079 -0.008534424772694154
leaf_weight=6.8290177434682855 8.8464936949312669
leaf_count=36 40
internal_value=0
internal_weight=0
internal_count=76
is_linear=0
shrinkage=0.0394807


Tree=247
num_leaves=2
num_cat=0
split_feature=30
split_gain=0.822584
threshold=0.81376965675495494
decision_type=2
left_child=-1
right_child=-2
leaf_value=0.017766839429105334 -0.015134166834343559
leaf_weight=2.2312318244948983 2.524001959245652
leaf_count=27 49
internal_value=0
internal_weight=0
internal_count=76
is_linear=0
shrinkage=0.0394807


Tree=248
num_leaves=2
num_cat=0
split_feature=18
split_gain=1.1336
threshold=0.21853388488935066
decision_type=2
left_child=-1
right_child=-2
leaf_value=-0.014177067727957493 0.0081860592295213471
leaf_weight=5.6602539271116266 9.4002913236618024
leaf_count=25 51
internal_value=0
internal_weight=0
internal_count=76
is_linear=0
shrinkage=0.0394807


Tree=249
num_leaves=2
num_cat=0
split_feature=17
split_gain=0.935308
threshold=0.27560851931780078
decision_type=2
left_child=-1
right_child=-2
leaf_value=-0.011170836214194988 0.0083763178219737212
leaf_weight=6.6047036759555349 9.0341135263442975
leaf_count=39 37
internal_value=0
internal_weight=0
internal_count=76
is_linear=0
shrinkage=0.0394807


Tree=250
num_leaves=2
num_cat=0
split_feature=28
split_gain=0.817563
threshold=141488442250.00003
decision_type=2
left_child=-1
right_child=-2
leaf_value=-0.01404580306836635 0.019001199931248148
leaf_weight=2.7020148313604295 2.0533095756545663
leaf_count=54 22
internal_value=0
internal_weight=0
internal_count=76
is_linear=0
shrinkage=0.0394807


Tree=251
num_leaves=2
num_cat=0
split_feature=18
split_gain=1.08746
threshold=0.21853388488935066
decision_type=2
left_child=-1
right_child=-2
leaf_value=-0.013895207178217612 0.0080492570703114517
leaf_weight=5.6385190188884744 9.3665085248649103
leaf_count=25 51
internal_value=0
internal_weight=0
internal_count=76
is_linear=0
shrinkage=0.0394807


Tree=252
num_leaves=2
num_cat=0
split_feature=15
split_gain=0.95167
threshold=0.20378918087777614
decision_type=2
left_child=-1
right_child=-2
leaf_value=0.011193208444668933 -0.0084894702807087608
leaf_weight=6.8015685603022584 8.7602935284376127
leaf_count=36 40
internal_value=0
internal_weight=0
internal_count=76
is_linear=0
shrinkage=0.0394807


Tree=253
num_leaves=3
num_cat=0
split_feature=34 4
split_gain=0.806681 0.285761
threshold=-0.13403126867222606 190390.00000000003
decision_type=2 2
left_child=-1 -2
right_child=1 -3
leaf_value=0.017537563138158449 -0.028264520636441123 -0.0015632738203283435
leaf_weight=2.2207906972616911 1.2725093257613482 1.2451145704835651
leaf_count=18 38 20
internal_value=0 -0.0151041
internal_weight=0 2.51762
internal_count=76 58
is_linear=0
shrinkage=0.0394807


Tree=254
num_leaves=2
num_cat=0
split_feature=34
split_gain=1.0719
threshold=-0.1044336890392054
decision_type=2
left_child=-1
right_child=-2
leaf_value=-0.013249444960975947 0.0083837225104674926
leaf_weight=5.908930867910386 9.0184331312775594
leaf_count=24 52
internal_value=0
internal_weight=0
internal_count=76
is_linear=0
shrinkage=0.0394807


Tree=255
num_leaves=2
num_cat=0
split_feature=15
split_gain=0.91804
threshold=0.20378918087777614
decision_type=2
left_child=-1
right_child=-2
leaf_value=0.010998917054292782 -0.0083402137535790906
leaf_weight=6.8068817667663106 8.7362377420067769
leaf_count=36 40
internal_value=0
internal_weight=0
internal_count=76
is_linear=0
shrinkage=0.0394807


Tree=256
num_leaves=2
num_cat=0
split_feature=28
split_gain=0.774108
threshold=141488442250.00003
decision_type=2
left_child=-1
right_child=-2
leaf_value=-0.013894400587568499 0.018297440194847005
leaf_weight=2.6754217990674078 2.0610219426453114
leaf_count=54 22
internal_value=0
internal_weight=0
internal_count=76
is_linear=0
shrinkage=0.0394807


Tree=257
num_leaves=2
num_cat=0
split_feature=7
split_gain=1.03929
threshold=0.77273142302106268
decision_type=2
left_child=-1
right_child=-2
leaf_value=-0.0090023663396447632 0.012153016130231046
leaf_weight=8.6703834757208806 6.213027562946082
leaf_count=44 32
internal_value=0
internal_weight=0
internal_count=76
is_linear=0
shrinkage=0.0394807


Tree=258
num_leaves=2
num_cat=0
split_feature=1
split_gain=0.91902
threshold=0.9919756087060404
decision_type=2
left_child=-1
right_child=-2
leaf_value=0.0085630740746557975 -0.010787272497452982
leaf_weight=8.7712766975164396 6.7846663370728502
leaf_count=36 40
internal_value=0
internal_weight=0
internal_count=76
is_linear=0
